tree
version=v4
num_class=1
num_tree_per_iteration=1
label_index=0
max_feature_idx=179
objective=quantile
feature_names=meta_wu_obs_available wu_last_temp_f wu_last_dewpoint_f wu_last_rh_pct wu_last_pressure_in wu_last_wind_speed_mph wu_last_wind_dir_deg wu_last_wind_gust_mph wu_last_visibility wu_last_precip_hrly_in wu_prev_day_final_tmax_f wu_prev_day_final_tmin_f wu_prev_day_total_precip_in wu_temp_change_1h_f wu_temp_change_3h_f wu_temp_change_6h_f wu_dewpoint_change_3h_f wu_pressure_change_3h wu_wind_speed_mean_3h wu_wind_gust_max_6h wu_visibility_min_6h wu_precip_total_6h meta_nbm_available meta_nbm_selected_issue_age_minutes meta_nbm_target_day_row_count meta_nbm_missing_checkpoint_count meta_nbm_missing_required_feature_count meta_nbm_coverage_complete nbm_tcdc_morning_mean_pct nbm_tcdc_day_mean_pct nbm_dswrf_day_max_w_m2 nbm_apcp_day_total_kg_m2 nbm_visibility_day_min_m nbm_ceiling_morning_min_m nbm_cape_day_max_j_kg nbm_pwther_code_day_mode nbm_pwther_nonzero_hour_count nbm_pwther_any_flag nbm_tstm_day_max_pct nbm_tstm_day_mean_pct nbm_tstm_any_flag nbm_ptype_code_day_mode nbm_ptype_nonzero_hour_count nbm_ptype_any_flag nbm_vrate_day_max nbm_vrate_day_mean nbm_tcdc_crop_day_mean_pct nbm_dswrf_crop_day_max_w_m2 nbm_rh_2m_09_local_pct nbm_rh_2m_15_local_pct nbm_wind_10m_direction_09_local_deg nbm_wind_10m_direction_15_local_deg nbm_thunc_day_max_code nbm_thunc_day_mean_code nbm_thunc_nonzero_hour_count meta_lamp_available meta_lamp_revision_available meta_lamp_coverage_complete meta_lamp_missing_checkpoint_count lamp_missing_checkpoint_any lamp_forecast_hour_min lamp_forecast_hour_max lamp_target_day_row_count lamp_day_tmp_max_f_forecast lamp_day_tmp_min_f_forecast lamp_day_tmp_range_f_forecast lamp_day_tmp_argmax_local_hour lamp_morning_cig_min_hundreds_ft lamp_morning_vis_min_miles lamp_morning_obv_any lamp_morning_ifr_like_any lamp_day_p01_max_pct lamp_day_p06_max_pct lamp_day_pos_max_pct lamp_day_poz_max_pct lamp_day_precip_type_any lamp_rev_day_tmp_max_f lamp_rev_day_p01_max_pct lamp_rev_day_pos_max_pct lamp_rev_morning_cig_min_hundreds_ft lamp_rev_morning_vis_min_miles lamp_tmp_f_at_06 lamp_dpt_f_at_06 lamp_wdr_deg_at_06 lamp_cig_hundreds_ft_at_06 lamp_vis_miles_at_06 lamp_tmp_f_at_09 lamp_dpt_f_at_09 lamp_wdr_deg_at_09 lamp_cig_hundreds_ft_at_09 lamp_vis_miles_at_09 lamp_tmp_f_at_12 lamp_dpt_f_at_12 lamp_wdr_deg_at_12 lamp_cig_hundreds_ft_at_12 lamp_vis_miles_at_12 lamp_tmp_f_at_15 lamp_dpt_f_at_15 lamp_wdr_deg_at_15 lamp_cig_hundreds_ft_at_15 lamp_vis_miles_at_15 lamp_tmp_f_at_18 lamp_dpt_f_at_18 lamp_wdr_deg_at_18 lamp_cig_hundreds_ft_at_18 lamp_vis_miles_at_18 lamp_tmp_f_at_21 lamp_dpt_f_at_21 lamp_wdr_deg_at_21 lamp_cig_hundreds_ft_at_21 lamp_vis_miles_at_21 lamp_rev_tmp_f_at_06 lamp_rev_tmp_f_at_09 lamp_rev_tmp_f_at_12 lamp_rev_tmp_f_at_15 lamp_rev_tmp_f_at_18 lamp_rev_tmp_f_at_21 nbm_tmax_open_f lamp_tmax_open_f anchor_tmax_f nbm_minus_lamp_tmax_f nbm_temp_2m_day_max_f nbm_temp_2m_day_mean_f nbm_native_tmax_2m_day_max_f nbm_native_tmax_2m_nb3_day_max_f nbm_native_tmax_2m_nb7_day_max_f nbm_native_tmax_2m_crop_day_max_f nbm_gust_10m_day_max_mph nbm_temp_2m_nb3_day_mean_f nbm_temp_2m_nb7_day_mean_f nbm_temp_2m_crop_day_mean_f nbm_wind_10m_speed_nb7_day_mean_mph nbm_temp_2m_06_local_f nbm_temp_2m_09_local_f nbm_temp_2m_12_local_f nbm_temp_2m_15_local_f nbm_temp_2m_18_local_f nbm_temp_2m_21_local_f nbm_dewpoint_2m_09_local_f nbm_dewpoint_2m_15_local_f nbm_wind_10m_speed_09_local_mph nbm_wind_10m_speed_15_local_mph lamp_wsp_mph_at_06 lamp_wsp_mph_at_09 lamp_wsp_mph_at_12 lamp_wsp_mph_at_15 lamp_wsp_mph_at_18 lamp_wsp_mph_at_21 season_month day_of_year day_of_year_sin day_of_year_cos wu_last_cloud_cover_code_code wu_last_wx_phrase_code lamp_morning_cld_mode_code lamp_day_precip_type_mode_code lamp_wgs_code_at_06_code lamp_cld_code_at_06_code lamp_obv_code_at_06_code lamp_typ_code_at_06_code lamp_wgs_code_at_09_code lamp_cld_code_at_09_code lamp_obv_code_at_09_code lamp_typ_code_at_09_code lamp_wgs_code_at_12_code lamp_cld_code_at_12_code lamp_obv_code_at_12_code lamp_typ_code_at_12_code lamp_wgs_code_at_15_code lamp_cld_code_at_15_code lamp_obv_code_at_15_code lamp_typ_code_at_15_code lamp_wgs_code_at_18_code lamp_cld_code_at_18_code lamp_obv_code_at_18_code lamp_typ_code_at_18_code lamp_wgs_code_at_21_code lamp_cld_code_at_21_code lamp_obv_code_at_21_code lamp_typ_code_at_21_code
feature_infos=none [13:95] [-4:76] [20:97] [29:30.859999999999999] [0:39] [10:360] [16:51] [0.25:10] none [20:101] [5:81] [0:6.7700000000000005] [-9:5] [-16:8] [-18:10] [-28:14] [-0.24000000000000199:0.24000000000000199] [0:31] [16:56] [0.25:10] [0:2.9399999999999999] none none none none none none [0.8571428571428571:97.857142857142861] [1.6956521739130435:97.086956521739125] [25:979] [0:92.456001043319702] [209:16209] [32:88888] [0:3106] none [0:23] [0:1] [0:28] [0:15.347826086956522] [0:1] none none none [413:36790] [282.47826086956519:16284.04347826087] [4.7449081764937464:92.591596487615902] [281:1000] [31:96] [18:92] [0:360] [0:360] [0:4] [0:1.9090909090909092] [0:22] none none none none none none none none [21:95] [6:82] [0:29] [0:23] [1:8] [1:7] none none [0:100] [0:100] [0:100] [0:85] [0:1] [-5:4] [-40:46] [-46:24] none none [6:82] [-13:74] [1:36] [1:8] [1:7] [15:87] [-13:73] [1:36] [1:8] [1:7] [16:93] [-10:74] [1:36] [2:8] [1:7] [19:95] [-11:74] [1:36] [2:8] [2:7] [19:93] [-12:73] [1:36] [2:8] [2:7] [16:88] [-11:73] [1:36] [2:8] [2:7] [-2:4] [-2:2] [-7:2] [-4:3] [-3:2] [-2:2] [20.768006591796915:93.326057128906285] [21:95] [20.884003295898459:93.983017578125015] [-5.9939868164062062:15.610010986328163] [20.768006591796915:93.326057128906285] [16.822863928753407:86.368601817255467] [20.40803955078129:96.961982421875035] [21.128028564453167:96.961982421875035] [21.128028564453167:97.681971435546913] [37.687995605468792:103.44199340820316] [5.5923407302499992:57.265569931083469] [16.600252260954573:85.836431778617637] [16.472763185543386:85.461419322463215] [12.831300541582131:78.35532798738474] [2.6803538976613313:26.262862610770139] [7.3400219726562916:79.861982421875041] [10.345991210937541:83.785969238281297] [16.98799560546879:91.057984619140669] [19.165980224609417:93.326057128906285] [17.294019775390666:91.669978027343788] [15.727973632812542:86.737995605468797] [-14.548012084960895:72.877973632812541] [-10.714003295898394:73.543964843750047] [0.89477453017317921:26.843235505199999] [0.89477453017317921:29.527558629058259] [2.301558896:29.920265648000001] [3.4523383440000002:32.221824544] [3.4523383440000002:31.071045095999999] [3.4523383440000002:32.221824544] [5.7538972399999997:32.221824544] [4.6031177919999999:32.221824544] [1:12] [1:366] [-0.9999631612477099:0.9999631612477099] [-1:1] [-1:4] [-1:24] [-1:4] [-1:2] [-1:14] [-1:4] [-1:3] [-1:2] [-1:17] [-1:4] [-1:3] [-1:2] [-1:20] [-1:4] [-1:3] [-1:1] [-1:25] [-1:4] [-1:3] [-1:1] [-1:19] [-1:4] [-1:3] [-1:1] [-1:15] [-1:4] [-1:3] [-1:1]
tree_sizes=565 504 505 572 505 503 508 501 588 593 502 501 597 678 501 507 587 598 507 675 599 589 675 494 506 678 598 506 586 506 764 594 507 507 591 493 681 665 590 509 676 591 593 509 586 599 500 593 589 593 593 592 601 766 595 688 599 507 583 679 587 679 595 589 586 505 503 594 503 505 599 593 599 510 590 590 586 597 599 587 592 500 679 508 598 598 597 675 675 759 594 685 678 678 506 761 511 680 598 591 684 590 503 757 599 593 680 514 593 599 597 680 513 673 513 513 501 591 768 680 593 685 513 687 681 684 594 507 599 513 594 595 585 509 511 597 604 681 505 510 592 678 757 685 598 508 689 510 508 597 685 601 597 605 686 584 601 678 683 688 509 597 680 602 754 513 778 767 684 688 688 604 593 599 513 512 506 514 684 513 597 594 600 513 601 685 599 684 506 506 511 496 592 512 597 688 592 510 506 511 689 507 514 684 598 599 596 512 683 598 596 593 601 689 597 686 506 596 500 594 511 499 512 585 682 682 683 511 508 682 598 510 508 597 686 690 593 593 684 508 681 511 508 596 581 598 511 601 596 685 776 518 692 596 515 509 681 674 597 595 600 513 674 511 508 512 679 599 595 594 597 597 603 677 757 592 598 689 597 522 602 598 685 601 600 683 515 514 515 681 513 599 515 768 599 598 603 501 600 597 508 596 674 598 511 683 594 595 502 606 605 592 681 683 509 510 684 598 600 505 600 592 597 685 509 513 689 679 689 508 679 600 683 512 683 514 592 600 511 687 582 686 499 772 502 596 686 518 604 673

Tree=0
num_leaves=5
num_cat=0
split_feature=99 19 145 157
split_gain=3.20926 0.779131 0.573238 0.34765
threshold=4.5000000000000009 40.500000000000007 10.932404756000002 1.0000000180025095e-35
decision_type=8 8 10 2
left_child=-1 2 -2 -3
right_child=1 3 -4 -5
leaf_value=-1.7442101719473271 -1.6965054920882574 -1.7049905693976377 -1.7247383098098463 -1.6882654864706281
leaf_weight=77 73 84 148 229
leaf_count=77 73 84 148 229
internal_value=-1.7088 -1.7081 -1.70921 -1.7073
internal_weight=611 534 221 313
internal_count=611 534 221 313
is_linear=0
shrinkage=1


Tree=1
num_leaves=4
num_cat=0
split_feature=32 120 65
split_gain=2.36966 1.18696 0.356192
threshold=3209.0000000000005 -1.7980120849608949 14.500000000000002
decision_type=8 2 2
left_child=-1 -2 -3
right_child=1 2 -4
leaf_value=-0.036369346373906923 -0.012878852073650433 0.014162985739724876 -4.3382883495034062e-05
leaf_weight=130 95 318 94
leaf_count=130 95 318 94
internal_value=-0.000159657 0.000610352 0.00119904
internal_weight=637 507 412
internal_count=637 507 412
is_linear=0
shrinkage=0.025


Tree=2
num_leaves=4
num_cat=0
split_feature=120 99 4
split_gain=1.88887 0.850774 0.329107
threshold=-1.6629901123046478 4.5000000000000009 30.095000000000002
decision_type=2 8 10
left_child=-1 -2 -3
right_child=1 2 -4
leaf_value=-0.018971761432826154 -0.019140086187053703 0.0074538997869687809 0.022793208321235998
leaf_weight=119 73 298 142
leaf_count=119 73 298 142
internal_value=-2.35478e-05 0.000632239 0.00105618
internal_weight=632 513 440
internal_count=632 513 440
is_linear=0
shrinkage=0.025


Tree=3
num_leaves=5
num_cat=0
split_feature=46 133 108 73
split_gain=1.22269 0.934326 0.777689 0.492421
threshold=64.33092879126157 47.353986816406298 31.500000000000004 inf
decision_type=2 2 10 8
left_child=2 -2 3 -1
right_child=1 -3 -4 -5
leaf_value=0.019277925844650337 -0.040273717348226566 -0.00037927046866010342 -0.016955663248926663 -0.0030905713434864271
leaf_weight=251 87 98 78 96
leaf_count=251 87 98 78 96
internal_value=-7.31706e-05 -0.00175 0.000656977 0.00117188
internal_weight=610 185 425 347
internal_count=610 185 425 347
is_linear=0
shrinkage=0.025


Tree=4
num_leaves=4
num_cat=0
split_feature=120 47 30
split_gain=1.4853 0.586738 0.445225
threshold=-1.6629901123046478 923.50000000000011 335.50000000000006
decision_type=2 2 2
left_child=-1 2 -2
right_child=1 -3 -4
leaf_value=-0.018785713327401983 -0.00016874930736122007 -0.0023367718055534907 0.01640579497246894
leaf_weight=116 100 91 293
leaf_count=116 100 91 293
internal_value=0.000157025 0.000777096 0.00119975
internal_weight=600 484 393
internal_count=600 484 393
is_linear=0
shrinkage=0.025


Tree=5
num_leaves=4
num_cat=0
split_feature=33 13 66
split_gain=2.02843 0.754527 0.320728
threshold=196.00000000000003 -1.4999999999999998 15.500000000000002
decision_type=2 10 2
left_child=-1 -2 -3
right_child=1 2 -4
leaf_value=-0.029446109671509194 -0.018682721943983561 0.016635170319162958 0.00080042589554397698
leaf_weight=94 81 318 125
leaf_count=94 81 318 125
internal_value=0.000144462 0.000765596 0.00117746
internal_weight=618 524 443
internal_count=618 524 443
is_linear=0
shrinkage=0.025


Tree=6
num_leaves=4
num_cat=0
split_feature=120 109 98
split_gain=1.42228 0.764112 0.423461
threshold=-1.6629901123046478 4.5000000000000009 26.500000000000004
decision_type=2 8 10
left_child=-1 -2 -3
right_child=1 2 -4
leaf_value=-0.017833895733297869 -0.035139410546831333 0.013428835788038156 0.0023131950125637782
leaf_weight=119 78 223 209
leaf_count=119 78 223 209
internal_value=-0.000193218 0.000378641 0.000800915
internal_weight=629 510 432
internal_count=629 510 432
is_linear=0
shrinkage=0.025


Tree=7
num_leaves=4
num_cat=0
split_feature=8 13 97
split_gain=1.16297 1.00911 0.596411
threshold=9.5000000000000018 -1.4999999999999998 41.500000000000007
decision_type=8 8 8
left_child=-1 -2 -3
right_child=1 2 -4
leaf_value=-0.029161878684722239 -0.046009960035251853 0.021566334191904062 0.00063551674064287833
leaf_weight=72 72 235 220
leaf_count=72 72 235 220
internal_value=7.03643e-05 0.000493421 0.000940217
internal_weight=599 527 455
internal_count=599 527 455
is_linear=0
shrinkage=0.025


Tree=8
num_leaves=5
num_cat=0
split_feature=46 39 120 47
split_gain=1.12101 0.951467 0.6475 0.335277
threshold=64.080834395771618 0.1521739130434783 -1.3460406494140214 928.50000000000011
decision_type=2 2 2 2
left_child=2 -2 -1 -4
right_child=1 -3 3 -5
leaf_value=-0.0064299063156681895 -0.027841462084561772 0.0018124345305037183 0.02056143228570647 0.0035645039277100786
leaf_weight=138 81 106 221 70
leaf_count=138 81 106 221 70
internal_value=0.000136876 -0.00144531 0.000846774 0.00151182
internal_weight=616 187 429 291
internal_count=616 187 429 291
is_linear=0
shrinkage=0.025


Tree=9
num_leaves=5
num_cat=0
split_feature=109 120 49 126
split_gain=1.23526 0.561755 0.659612 0.253815
threshold=5.5000000000000009 -1.0559802246093317 42.500000000000007 77.350974731445362
decision_type=8 2 2 2
left_child=-1 2 -2 -3
right_child=1 3 -4 -5
leaf_value=-0.027209116686106219 0.0048665228975320676 0.024647460787082479 -0.021828438172680091 0.0036427774165628183
leaf_weight=128 98 184 78 118
leaf_count=128 98 184 78 118
internal_value=5.72832e-05 0.000652174 -0.000441989 0.00130293
internal_weight=606 478 176 302
internal_count=606 478 176 302
is_linear=0
shrinkage=0.025


Tree=10
num_leaves=4
num_cat=0
split_feature=90 120 44
split_gain=1.35889 1.13232 0.362598
threshold=6.5000000000000009 -1.6629901123046478 14950.500000000002
decision_type=8 2 2
left_child=-1 -2 -3
right_child=1 2 -4
leaf_value=-0.0276386751624783 -0.0071757160980381639 0.011932540680443453 -0.0016068682747668835
leaf_weight=93 112 322 78
leaf_count=93 112 322 78
internal_value=1.22952e-05 0.000531915 0.00116049
internal_weight=605 512 400
internal_count=605 512 400
is_linear=0
shrinkage=0.025


Tree=11
num_leaves=4
num_cat=0
split_feature=13 8 120
split_gain=1.15967 0.662192 0.47249
threshold=-1.4999999999999998 9.5000000000000018 -1.7150164794921456
decision_type=8 8 2
left_child=-1 -2 -3
right_child=1 2 -4
leaf_value=-0.036976835961346176 -0.01053283324893502 -0.0028166305263877976 0.010183673636870038
leaf_weight=82 72 86 370
leaf_count=82 72 86 370
internal_value=0.000195122 0.000637899 0.000997831
internal_weight=610 528 456
internal_count=610 528 456
is_linear=0
shrinkage=0.025


Tree=12
num_leaves=5
num_cat=0
split_feature=13 97 153 66
split_gain=0.908009 0.546998 0.861805 0.311823
threshold=-1.4999999999999998 39.500000000000007 1.0000000180025095e-35 14.500000000000002
decision_type=8 8 2 2
left_child=-1 3 -3 -2
right_child=1 2 -4 -5
leaf_value=-0.034316451123519595 0.022983912214340877 -0.017568067911924168 0.0052216689733732384 0.0029505325991429593
leaf_weight=88 130 71 210 135
leaf_count=88 130 71 210 135
internal_value=0.000125196 0.000517241 -0.000236014 0.00132407
internal_weight=634 546 281 265
internal_count=634 546 281 265
is_linear=0
shrinkage=0.025


Tree=13
num_leaves=6
num_cat=0
split_feature=14 28 97 11 30
split_gain=0.72324 1.02338 0.503631 0.395982 0.0138144
threshold=-1.4999999999999998 43.857142857142868 42.500000000000007 58.500000000000007 395.50000000000006
decision_type=8 2 10 10 2
left_child=1 3 4 -1 -2
right_child=2 -3 -4 -5 -6
leaf_value=0.012347833586274226 0.007981007707715565 -0.028838381360090988 -0.0021965791088021905 -0.0053342505809427336 0.022672382600179761
leaf_weight=119 70 137 120 70 88
leaf_count=119 70 137 120 70 88
internal_value=9.03121e-05 -0.000694864 0.00102474 0.000476804 0.00193252
internal_weight=604 326 278 189 158
internal_count=604 326 278 189 158
is_linear=0
shrinkage=0.025


Tree=14
num_leaves=4
num_cat=0
split_feature=13 19 46
split_gain=0.871219 1.02195 0.378359
threshold=-1.4999999999999998 24.500000000000004 64.33092879126157
decision_type=8 8 2
left_child=-1 -2 -3
right_child=1 2 -4
leaf_value=-0.030236365844677721 -0.013084366235979035 0.016658327510172394 0.0028165019128583483
leaf_weight=95 85 317 138
leaf_count=95 85 317 138
internal_value=0.000558594 0.000954129 0.00142935
internal_weight=635 540 455
internal_count=635 540 455
is_linear=0
shrinkage=0.025


Tree=15
num_leaves=4
num_cat=0
split_feature=13 85 65
split_gain=1.14481 0.948178 0.873683
threshold=-1.4999999999999998 6.5000000000000009 14.500000000000002
decision_type=10 8 2
left_child=-1 -2 -3
right_child=1 2 -4
leaf_value=-0.03069061799396727 -0.016110755551144884 0.015151857617206086 -0.0049763098962262078
leaf_weight=90 105 317 105
leaf_count=90 105 317 105
internal_value=-4.42121e-05 0.000399436 0.000936768
internal_weight=617 527 422
internal_count=617 527 422
is_linear=0
shrinkage=0.025


Tree=16
num_leaves=5
num_cat=0
split_feature=13 97 102 29
split_gain=1.70668 0.512524 0.525485 0.263201
threshold=-1.4999999999999998 39.500000000000007 46.500000000000007 53.086956521739133
decision_type=8 8 8 2
left_child=-1 3 -3 -2
right_child=1 2 -4 -5
leaf_value=-0.038996362298767843 0.020210546851901885 -0.011527606647727768 0.002940949165216485 0.00276700444005628
leaf_weight=76 167 81 185 98
leaf_count=76 167 81 185 98
internal_value=0.000224673 0.000741605 -1.84501e-05 0.00150926
internal_weight=607 531 266 265
internal_count=607 531 266 265
is_linear=0
shrinkage=0.025


Tree=17
num_leaves=5
num_cat=0
split_feature=46 17 151 152
split_gain=1.07284 0.817115 0.540357 0.183206
threshold=64.080834395771618 -0.0099999999999997851 -0.64713682673509032 2.5000000000000004
decision_type=2 10 2 2
left_child=2 -2 -1 -4
right_child=1 -3 3 -5
leaf_value=-0.00083771971320966787 0.0029049843957927434 -0.026413789321976008 0.020953536933867777 0.0075116099717670685
leaf_weight=112 114 90 204 79
leaf_count=112 114 90 204 79
internal_value=0.000318709 -0.0011244 0.00108125 0.00165799
internal_weight=599 204 395 283
internal_count=599 204 395 283
is_linear=0
shrinkage=0.025


Tree=18
num_leaves=4
num_cat=0
split_feature=120 32 47
split_gain=1.22013 1.15729 0.251221
threshold=-1.6629901123046478 2569.0000000000005 910.50000000000011
decision_type=2 8 2
left_child=-1 -2 -3
right_child=1 2 -4
leaf_value=-0.012904363309471135 -0.019591615056489715 0.013455384629034287 0.0013009052235060728
leaf_weight=127 107 276 100
leaf_count=127 107 276 100
internal_value=-0.000154471 0.000414959 0.00107612
internal_weight=610 483 376
internal_count=610 483 376
is_linear=0
shrinkage=0.025


Tree=19
num_leaves=6
num_cat=0
split_feature=78 99 149 139 6
split_gain=0.622445 1.82751 0.309331 0.42709 0.0381176
threshold=3.5000000000000004 7.5000000000000009 141.50000000000003 39.326002197265673 195.00000000000003
decision_type=8 8 2 2 10
left_child=2 -2 3 -1 -4
right_child=1 -3 4 -5 -6
leaf_value=0.0069695162533100156 -0.021442800865871487 0.015857233469669989 0.011992169751965362 -0.013318279136260439 0.025159073797669285
leaf_weight=164 107 102 82 72 81
leaf_count=164 107 102 82 72 81
internal_value=0.000391517 -0.000689252 0.000971535 0.000352697 0.0018006
internal_weight=608 209 399 236 163
internal_count=608 209 399 236 163
is_linear=0
shrinkage=0.025


Tree=20
num_leaves=5
num_cat=0
split_feature=120 32 17 102
split_gain=0.925738 0.622685 1.10429 0.436414
threshold=-1.6629901123046478 6281.0000000000009 -0.015000000000000567 44.500000000000007
decision_type=2 8 10 10
left_child=-1 2 -2 -3
right_child=1 3 -4 -5
leaf_value=-0.0060704604610490147 0.0061284470071862589 0.023075831145806545 -0.038812208277425916 0.0015278324659729488
leaf_weight=124 81 205 74 117
leaf_count=124 81 205 74 117
internal_value=0.000243399 0.000752075 -0.000515625 0.00137615
internal_weight=601 477 155 322
internal_count=601 477 155 322
is_linear=0
shrinkage=0.025


Tree=21
num_leaves=5
num_cat=0
split_feature=46 36 144 124
split_gain=1.00769 1.18378 0.521318 0.416026
threshold=64.33092879126157 7.5000000000000009 15.535522548000001 84.820963745117254
decision_type=2 2 10 2
left_child=2 -2 3 -1
right_child=1 -3 -4 -5
leaf_value=0.015969644111513807 -0.024920232516520795 0.0054595764874781376 -0.0036345051000495569 -0.0027829349775252295
leaf_weight=275 94 100 71 70
leaf_count=275 94 100 71 70
internal_value=0.000276423 -0.0011809 0.000973872 0.00137857
internal_weight=610 194 416 345
internal_count=610 194 416 345
is_linear=0
shrinkage=0.025


Tree=22
num_leaves=6
num_cat=0
split_feature=46 71 65 65 6
split_gain=0.855104 1.65288 0.548956 0.375914 0.249185
threshold=58.577322481149416 25.500000000000004 14.500000000000002 7.5000000000000009 295.00000000000006
decision_type=2 2 2 2 10
left_child=2 -2 4 -3 -1
right_child=1 3 -4 -5 -6
leaf_value=0.018796123214163907 -0.021683837425701721 0.016038322054665405 -0.0029542194368501105 -0.0089739108929467893 0.0049829059405068323
leaf_weight=150 85 79 117 86 89
leaf_count=150 85 79 117 86 89
internal_value=0.000139116 -0.000960784 0.000927978 0.000485294 0.00160861
internal_weight=606 250 356 165 239
internal_count=606 250 356 165 239
is_linear=0
shrinkage=0.025


Tree=23
num_leaves=4
num_cat=0
split_feature=120 3 120
split_gain=1.31841 0.889739 0.417461
threshold=-1.7150164794921456 80.500000000000014 -1.0910021972655846
decision_type=2 10 2
left_child=-1 2 -2
right_child=1 -3 -4
leaf_value=-0.011969797126662886 -0.001160124588648184 -0.019746337960374595 0.016000122948720812
leaf_weight=115 95 96 315
leaf_count=115 95 96 315
internal_value=0 0.00055773 0.00107229
internal_weight=621 506 410
internal_count=621 506 410
is_linear=0
shrinkage=0.025


Tree=24
num_leaves=4
num_cat=0
split_feature=13 32 88
split_gain=0.943251 0.941712 0.477695
threshold=-1.4999999999999998 1837.5000000000002 28.500000000000004
decision_type=10 8 8
left_child=-1 -2 -3
right_child=1 2 -4
leaf_value=-0.032383947805891933 -0.022312269215898219 0.00068615898035705831 0.013024442716333205
leaf_weight=84 89 267 165
leaf_count=84 89 267 165
internal_value=1.22952e-05 0.000423004 0.000915332
internal_weight=605 521 432
internal_count=605 521 432
is_linear=0
shrinkage=0.025


Tree=25
num_leaves=6
num_cat=0
split_feature=14 152 73 30 18
split_gain=0.902108 1.15467 0.661298 0.525341 0.151025
threshold=-1.4999999999999998 2.5000000000000004 16.500000000000004 335.50000000000006 8.4166666666666696
decision_type=8 2 8 2 8
left_child=1 2 -1 -2 -5
right_child=3 -3 -4 4 -6
leaf_value=0.024783016605817734 -0.0086963634351138967 -0.028820943864876592 -0.0033848879587758465 0.0065936276758995277 0.021824809077939294
leaf_weight=84 80 117 128 98 123
leaf_count=84 80 117 128 98 123
internal_value=0.000149606 -0.000741018 0.000345622 0.00113562 0.00175885
internal_weight=630 329 212 301 221
internal_count=630 329 212 301 221
is_linear=0
shrinkage=0.025


Tree=26
num_leaves=5
num_cat=0
split_feature=109 74 120 102
split_gain=1.06408 0.595752 0.530875 0.0870711
threshold=5.5000000000000009 1.0000000180025095e-35 -1.1180285644530839 45.500000000000007
decision_type=8 8 2 10
left_child=-1 3 -3 -2
right_child=1 2 -4 -5
leaf_value=-0.019913269044853431 0.023232089091280182 -0.0097844777022424827 0.00265223538179716 0.015013825741792048
leaf_weight=121 172 93 155 70
leaf_count=121 172 93 155 70
internal_value=0.000117695 0.000646465 -0.000197628 0.00151822
internal_weight=611 490 248 242
internal_count=611 490 248 242
is_linear=0
shrinkage=0.025


Tree=27
num_leaves=4
num_cat=0
split_feature=13 78 32
split_gain=0.990288 0.53777 0.289694
threshold=-1.4999999999999998 5.5000000000000009 6281.0000000000009
decision_type=10 8 10
left_child=-1 2 -2
right_child=1 -3 -4
leaf_value=-0.03709403980739439 0.0013845940416377098 -0.0024464919512212609 0.017934222384735965
leaf_weight=91 108 138 248
leaf_count=91 108 138 248
internal_value=0.000309322 0.000761523 0.00127424
internal_weight=585 494 356
internal_count=585 494 356
is_linear=0
shrinkage=0.025


Tree=28
num_leaves=5
num_cat=0
split_feature=13 66 50 45
split_gain=1.41697 0.579011 1.10395 0.516259
threshold=-1.4999999999999998 14.500000000000002 65.000000000000014 2198.9130434782614
decision_type=10 2 2 2
left_child=-1 3 -3 -2
right_child=1 2 -4 -5
leaf_value=-0.026588241549556593 -0.00240694993929385 0.0093226833449541191 -0.0073855195588107096 0.015870946448122671
leaf_weight=85 87 78 223 147
leaf_count=85 87 78 223 147
internal_value=-0.000232 0.00024537 -0.000465686 0.00117155
internal_weight=620 535 301 234
internal_count=620 535 301 234
is_linear=0
shrinkage=0.025


Tree=29
num_leaves=4
num_cat=0
split_feature=13 19 97
split_gain=0.747782 0.543818 0.261186
threshold=-1.4999999999999998 25.500000000000004 23.500000000000004
decision_type=8 8 10
left_child=-1 -2 -3
right_child=1 2 -4
leaf_value=-0.020196500224389572 -0.0082928931825903395 0.0002845533712318919 0.01472512834642163
leaf_weight=93 111 100 324
leaf_count=93 111 100 324
internal_value=0.000339653 0.000708333 0.00111888
internal_weight=628 535 424
internal_count=628 535 424
is_linear=0
shrinkage=0.025


Tree=30
num_leaves=7
num_cat=0
split_feature=14 120 17 48 38 127
split_gain=1.09359 0.941004 0.935634 0.354038 0.407979 0.068101
threshold=-1.4999999999999998 -0.99601318359371038 0.025000000000000359 68.500000000000014 2.5000000000000004 18.902111241583263
decision_type=8 2 10 2 2 2
left_child=1 -1 -3 5 -5 -2
right_child=3 2 -4 4 -6 -7
leaf_value=-0.021182678826914658 0.0083207147027789304 0.022159842529891071 -0.025951181943383819 -0.015087370510553276 0.02288846402490112 0.022009114758414605
leaf_weight=137 71 120 72 70 73 84
leaf_count=137 71 120 72 70 73 84
internal_value=-0.000122626 -0.00111527 9.02012e-11 0.000957096 1.6892e-05 0.00176563
internal_weight=627 329 192 298 143 155
internal_count=627 329 192 298 143 155
is_linear=0
shrinkage=0.025


Tree=31
num_leaves=5
num_cat=0
split_feature=13 66 99 88
split_gain=1.12512 0.579142 0.614134 0.288309
threshold=-1.4999999999999998 14.500000000000002 7.5000000000000009 24.500000000000004
decision_type=8 2 10 8
left_child=-1 3 -3 -2
right_child=1 2 -4 -5
leaf_value=-0.030283290057230502 0.0025450994888255711 -0.013280985857146717 0.0022207179416597867 0.021868920558418513
leaf_weight=81 117 139 170 115
leaf_count=81 117 139 170 115
internal_value=0.000119617 0.000544872 -0.000151274 0.00147679
internal_weight=622 541 309 232
internal_count=622 541 309 232
is_linear=0
shrinkage=0.025


Tree=32
num_leaves=4
num_cat=0
split_feature=120 32 66
split_gain=0.946049 0.805274 0.324742
threshold=-1.7150164794921456 1768.5000000000002 15.500000000000002
decision_type=2 8 2
left_child=-1 -2 -3
right_child=1 2 -4
leaf_value=-0.0079549054320790409 -0.022768235374509272 0.014108335604784368 0.0015676056816772742
leaf_weight=119 71 330 127
leaf_count=119 71 330 127
internal_value=0.000364264 0.000825516 0.00121753
internal_weight=647 528 457
internal_count=647 528 457
is_linear=0
shrinkage=0.025


Tree=33
num_leaves=4
num_cat=0
split_feature=15 120 103
split_gain=1.07318 0.727097 0.446758
threshold=-8.4999999999999982 -1.7150164794921456 30.500000000000004
decision_type=8 2 10
left_child=-1 -2 -3
right_child=1 2 -4
leaf_value=-0.018223794065221482 -0.012635821173456421 0.0075817287950743694 -0.0010433091447024764
leaf_weight=96 84 343 98
leaf_count=96 84 343 98
internal_value=7.58787e-05 0.000533019 0.000947309
internal_weight=621 525 441
internal_count=621 525 441
is_linear=0
shrinkage=0.025


Tree=34
num_leaves=5
num_cat=0
split_feature=44 131 102 2
split_gain=0.679898 0.764407 0.468507 0.316638
threshold=6262.0000000000009 7.2217116812386442 22.500000000000004 45.500000000000007
decision_type=2 2 8 10
left_child=1 -1 -2 -4
right_child=2 -3 3 -5
leaf_value=0.0092144566642573776 -0.00092197620748879798 -0.016812152513329005 0.023268202879418842 0.0031539472428733055
leaf_weight=124 75 128 123 147
leaf_count=124 75 128 123 147
internal_value=0.000228405 -0.0007393 0.00095 0.00143636
internal_weight=597 252 345 270
internal_count=597 252 345 270
is_linear=0
shrinkage=0.025


Tree=35
num_leaves=4
num_cat=0
split_feature=32 120 19
split_gain=1.1577 0.801654 0.366826
threshold=2569.0000000000005 -1.7150164794921456 25.500000000000004
decision_type=8 2 8
left_child=-1 -2 -3
right_child=1 2 -4
leaf_value=-0.02018744909298428 -0.0064120591561466203 -0.0080259139225490519 0.013033256673148117
leaf_weight=113 99 85 314
leaf_count=113 99 85 314
internal_value=0 0.000526839 0.00103342
internal_weight=611 498 399
internal_count=611 498 399
is_linear=0
shrinkage=0.025


Tree=36
num_leaves=6
num_cat=0
split_feature=29 17 161 94 66
split_gain=0.825302 1.96461 0.483434 0.260242 0.0971774
threshold=53.333992094861664 1.0000000180025095e-35 2.5000000000000004 5.5000000000000009 15.500000000000002
decision_type=2 10 2 10 2
left_child=2 3 4 -2 -1
right_child=1 -3 -4 -5 -6
leaf_value=0.020745499581576152 0.00052536633382932192 -0.038182617062200691 -0.00041268518139876909 0.018355309988984683 0.0049919792503583943
leaf_weight=169 100 85 109 71 81
leaf_count=169 100 85 109 71 81
internal_value=0.000375 -0.000689655 0.00114698 0.000838068 0.0017451
internal_weight=615 256 359 171 250
internal_count=615 256 359 171 250
is_linear=0
shrinkage=0.025


Tree=37
num_leaves=6
num_cat=0
split_feature=120 50 32 73 12
split_gain=1.06648 0.838706 0.740095 0.396621 0.265339
threshold=-0.99601318359371038 185.00000000000003 1801.0000000000002 49.500000000000007 0.115
decision_type=2 2 10 8 10
left_child=1 -1 -2 -3 -4
right_child=2 3 4 -5 -6
leaf_value=-0.021037959408385456 -0.01363217974489252 0.0084282052673668242 0.012677023938723747 -0.0055296552186531178 0.00075212573739249643
leaf_weight=72 76 75 248 80 70
leaf_count=72 76 75 248 80 70
internal_value=3.59426e-05 -0.00130388 0.000827068 -0.000203125 0.00136223
internal_weight=621 227 394 155 318
internal_count=621 227 394 155 318
is_linear=0
shrinkage=0.025


Tree=38
num_leaves=5
num_cat=0
split_feature=44 131 66 131
split_gain=0.928197 1.07164 0.67662 0.659384
threshold=5452.0000000000009 7.2217116812386442 15.500000000000002 12.86714729233603
decision_type=2 2 2 2
left_child=1 -1 3 -2
right_child=2 -3 -4 -5
leaf_value=0.012631065343477556 0.015329997101355731 -0.020097294402348448 -0.0021688697944017635 -0.0012684971009106476
leaf_weight=99 220 103 115 74
leaf_count=99 220 103 115 74
internal_value=0.000198864 -0.00115942 0.000887681 0.00152174
internal_weight=611 202 409 294
internal_count=611 202 409 294
is_linear=0
shrinkage=0.025


Tree=39
num_leaves=4
num_cat=0
split_feature=85 19 120
split_gain=0.946212 0.637575 0.534056
threshold=6.5000000000000009 30.500000000000004 -1.0559802246093317
decision_type=8 10 2
left_child=-1 2 -2
right_child=1 -3 -4
leaf_value=-0.017179475168070737 -0.00018114364657397791 -0.0036283749816726756 0.01280283138450008
leaf_weight=103 163 73 246
leaf_count=103 163 73 246
internal_value=0.000139831 0.000616017 0.00100845
internal_weight=585 482 409
internal_count=585 482 409
is_linear=0
shrinkage=0.025


Tree=40
num_leaves=6
num_cat=0
split_feature=14 46 44 66 46
split_gain=0.977545 0.705624 0.826512 0.423475 0.244067
threshold=-1.4999999999999998 64.080834395771618 13046.500000000002 14.500000000000002 56.084806718946915
decision_type=10 2 2 2 2
left_child=1 2 -1 -2 -5
right_child=3 -3 -4 4 -6
leaf_value=0.0063370420921508037 0.021208649451941335 -0.039710521742836229 -0.0038635472527152564 0.014945489700261098 -0.003342658193052381
leaf_weight=186 138 81 73 76 70
leaf_count=186 138 81 73 76 70
internal_value=0.000325914 -0.000565217 6.6288e-05 0.00140138 0.000397351
internal_weight=624 340 259 284 146
internal_count=624 340 259 284 146
is_linear=0
shrinkage=0.025


Tree=41
num_leaves=5
num_cat=0
split_feature=67 97 5 161
split_gain=1.21154 0.435682 0.455606 0.239933
threshold=3.5000000000000004 44.500000000000007 13.500000000000002 2.5000000000000004
decision_type=8 8 10 2
left_child=-1 2 -2 -3
right_child=1 3 -4 -5
leaf_value=-0.018146363447491539 0.016278580163660385 0.0046528077448987947 -5.1230195491970914e-05 -0.015731294366326715
leaf_weight=129 222 90 84 89
leaf_count=129 222 90 84 89
internal_value=0.000250404 0.000831633 0.00139871 -0.000122283
internal_weight=614 485 306 179
internal_count=614 485 306 179
is_linear=0
shrinkage=0.025


Tree=42
num_leaves=5
num_cat=0
split_feature=15 139 117 132
split_gain=0.723064 0.415454 0.488684 0.29068
threshold=-8.4999999999999982 45.283997802734426 74.182957153320373 35.797990112304738
decision_type=8 2 2 2
left_child=-1 3 -3 -2
right_child=1 2 -4 -5
leaf_value=-0.014453341942484824 0.001867503385602918 -0.013873821734575426 0.0011867390299395084 0.015395287615011908
leaf_weight=91 102 71 136 223
leaf_count=91 102 71 136 223
internal_value=0.000242834 0.000605214 -0.000247641 0.00115909
internal_weight=623 532 207 325
internal_count=623 532 207 325
is_linear=0
shrinkage=0.025


Tree=43
num_leaves=4
num_cat=0
split_feature=120 97 139
split_gain=0.918441 0.628992 1.04877
threshold=-1.7150164794921456 50.500000000000007 37.09401977539067
decision_type=2 10 2
left_child=-1 2 -2
right_child=1 -3 -4
leaf_value=-0.0099031330485354896 0.0052372409874121631 0.018696872536573081 -0.018308107278627368
leaf_weight=110 232 132 142
leaf_count=110 232 132 142
internal_value=9.66184e-05 0.00055773 1.31927e-05
internal_weight=616 506 374
internal_count=616 506 374
is_linear=0
shrinkage=0.025


Tree=44
num_leaves=5
num_cat=0
split_feature=99 19 36 65
split_gain=1.03239 0.499328 0.682043 0.298916
threshold=4.5000000000000009 34.000000000000007 2.5000000000000004 14.500000000000002
decision_type=8 8 2 2
left_child=-1 2 -2 -3
right_child=1 3 -4 -5
leaf_value=-0.01426045859656939 0.0070768276510460408 0.013104509082900602 -0.01803946071349587 -0.0017514086746482039
leaf_weight=79 108 247 70 88
leaf_count=79 108 247 70 88
internal_value=0.00020938 0.000632239 -0.000409836 0.00119853
internal_weight=592 513 178 335
internal_count=592 513 178 335
is_linear=0
shrinkage=0.025


Tree=45
num_leaves=5
num_cat=0
split_feature=120 4 12 152
split_gain=0.701468 1.00752 0.491663 0.32306
threshold=-0.99601318359371038 29.965000000000003 0.10500000000000002 1.5000000000000002
decision_type=2 10 10 2
left_child=1 -1 3 -2
right_child=2 -3 -4 -5
leaf_value=0.0021799217555250059 0.0026256453852690942 -0.017533473708250268 -0.0053061567994006024 0.021764647455512813
leaf_weight=130 100 103 103 186
leaf_count=130 100 103 103 186
internal_value=-2.39234e-05 -0.00110294 0.000615482 0.0011512
internal_weight=622 233 389 286
internal_count=622 233 389 286
is_linear=0
shrinkage=0.025


Tree=46
num_leaves=4
num_cat=0
split_feature=13 8 4
split_gain=2.05578 0.727194 0.327977
threshold=-1.4999999999999998 9.5000000000000018 29.895000000000003
decision_type=8 10 10
left_child=-1 -2 -3
right_child=1 2 -4
leaf_value=-0.030945478297924246 -0.0187193415811415 0.013523654749090886 0.0030116969360726247
leaf_weight=79 70 141 312
leaf_count=79 70 141 312
internal_value=8.23724e-05 0.000667614 0.00104258
internal_weight=602 523 453
internal_count=602 523 453
is_linear=0
shrinkage=0.025


Tree=47
num_leaves=5
num_cat=0
split_feature=14 66 46 50
split_gain=0.607086 0.391962 0.645935 0.184941
threshold=-3.4999999999999996 14.500000000000002 61.772172880226044 185.00000000000003
decision_type=10 2 2 2
left_child=-1 3 -3 -2
right_child=1 2 -4 -5
leaf_value=-0.0073249584683344792 0.0044687724852287281 0.0053985972314542462 -0.014258672701524283 0.017754171853991162
leaf_weight=118 71 177 79 160
leaf_count=118 71 177 79 160
internal_value=0.000340164 0.000736789 3.83143e-05 0.00147246
internal_weight=605 487 256 231
internal_count=605 487 256 231
is_linear=0
shrinkage=0.025


Tree=48
num_leaves=5
num_cat=0
split_feature=90 168 66 10
split_gain=1.06208 0.498486 0.530263 0.242481
threshold=5.5000000000000009 15.500000000000002 14.500000000000002 55.500000000000007
decision_type=8 2 2 8
left_child=-1 2 -2 -3
right_child=1 3 -4 -5
leaf_value=-0.017814828248263064 0.0063991093974884693 0.0019200227136812011 -0.014565599712521679 0.015537256312074144
leaf_weight=99 80 124 81 225
leaf_count=99 80 124 81 225
internal_value=0.000394951 0.000864078 -0.000256024 0.00139124
internal_weight=609 510 161 349
internal_count=609 510 161 349
is_linear=0
shrinkage=0.025


Tree=49
num_leaves=5
num_cat=0
split_feature=13 88 102 10
split_gain=1.15692 0.426413 0.509293 0.211616
threshold=-1.4999999999999998 23.500000000000004 48.500000000000007 52.500000000000007
decision_type=10 8 8 10
left_child=-1 2 -2 -3
right_child=1 3 -4 -5
leaf_value=-0.018955323380444207 -0.008464361967103786 0.010366181045036801 0.008017008158097947 0.016969081429093116
leaf_weight=93 133 105 123 155
leaf_count=93 133 105 123 155
internal_value=0.000313518 0.000786948 3.83143e-05 0.00149057
internal_weight=609 516 256 260
internal_count=609 516 256 260
is_linear=0
shrinkage=0.025


Tree=50
num_leaves=5
num_cat=0
split_feature=15 169 6 149
split_gain=0.531221 0.44713 0.513576 0.502303
threshold=-9.4999999999999982 1.0000000180025095e-35 145.00000000000003 170.50000000000003
decision_type=8 2 8 2
left_child=-1 3 -3 -2
right_child=1 2 -4 -5
leaf_value=-0.013989850812721345 -0.018200207871809815 -0.00066851411105616322 0.014616475857110659 0.00866167646871638
leaf_weight=71 94 116 242 87
leaf_count=71 94 116 242 87
internal_value=7.31708e-05 0.00035386 0.000867769 -0.00063172
internal_weight=610 539 358 181
internal_count=610 539 358 181
is_linear=0
shrinkage=0.025


Tree=51
num_leaves=5
num_cat=0
split_feature=13 97 92 2
split_gain=1.76114 0.662499 0.529773 0.148348
threshold=-1.4999999999999998 42.500000000000007 51.500000000000007 30.500000000000004
decision_type=8 10 10 8
left_child=-1 3 -3 -2
right_child=1 2 -4 -5
leaf_value=-0.024081426107005175 0.0045292249857240069 -0.014014139008687919 0.0079545596530230227 0.022922049325581416
leaf_weight=84 164 80 148 123
leaf_count=84 164 80 148 123
internal_value=0.000318709 0.000879808 -0.000107296 0.00166952
internal_weight=599 515 228 287
internal_count=599 515 228 287
is_linear=0
shrinkage=0.025


Tree=52
num_leaves=5
num_cat=0
split_feature=103 93 102 135
split_gain=0.599638 0.749521 0.562671 0.51795
threshold=27.500000000000004 29.500000000000004 39.500000000000007 72.706971435546919
decision_type=10 10 10 2
left_child=2 -2 -1 -4
right_child=1 -3 3 -5
leaf_value=0.0097652010172133881 -0.019802193650673428 0.00072872836087576167 -0.0083580987108074541 0.012802826595002807
leaf_weight=140 78 137 104 143
leaf_count=140 78 137 104 143
internal_value=0.000205931 -0.000829545 0.000797194 4.96033e-05
internal_weight=602 215 387 247
internal_count=602 215 387 247
is_linear=0
shrinkage=0.025


Tree=53
num_leaves=7
num_cat=0
split_feature=28 4 4 102 163 2
split_gain=0.658156 1.04936 0.476036 0.442808 0.356479 0.260364
threshold=43.857142857142868 29.985000000000003 30.135000000000002 44.500000000000007 1.0000000180025095e-35 48.500000000000007
decision_type=2 10 10 10 2 10
left_child=3 5 -3 4 -1 -2
right_child=1 2 -4 -5 -6 -7
leaf_value=0.020614690572928487 -0.0071746691428352417 -0.017879212810051899 -0.0011628681206840043 -0.00057317582660329437 0.00033497520194482907 0.011257225810397788
leaf_weight=124 90 76 73 102 82 80
leaf_count=124 90 76 73 102 82 80
internal_value=-0.000122626 -0.00091821 -0.00241883 0.000686901 0.00135071 0.0004
internal_weight=627 319 149 308 206 170
internal_count=627 319 149 308 206 170
is_linear=0
shrinkage=0.025


Tree=54
num_leaves=5
num_cat=0
split_feature=120 28 32 17
split_gain=0.500784 0.600535 0.548431 0.363397
threshold=-1.0049945068358921 30.357142857142858 1837.5000000000002 0.035000000000000149
decision_type=2 2 8 10
left_child=1 -1 -2 -4
right_child=2 -3 3 -5
leaf_value=0.0012551657512021128 -0.010667380904753292 -0.014276819007054556 0.013719522995368709 -0.00013999153069404181
leaf_weight=101 73 130 234 82
leaf_count=101 73 130 234 82
internal_value=0.000192 -0.000709746 0.000742386 0.00119938
internal_weight=620 231 389 316
internal_count=620 231 389 316
is_linear=0
shrinkage=0.025


Tree=55
num_leaves=6
num_cat=0
split_feature=88 19 157 151 107
split_gain=0.540522 0.548711 0.546712 0.503978 0.399682
threshold=19.500000000000004 30.500000000000004 1.5000000000000002 -0.060048958514948368 46.500000000000007
decision_type=8 10 2 2 10
left_child=2 4 -1 -4 -2
right_child=1 -3 3 -5 -6
leaf_value=-0.018866787811492251 0.019249325426501786 -0.0011144591307859625 0.0093215880731095414 -0.0058333653366115677 -0.00019968914021634799
leaf_weight=70 184 73 108 77 83
leaf_count=70 184 73 108 77 83
internal_value=5.41668e-05 0.000710145 -0.000798077 -3.94736e-05 0.00124081
internal_weight=595 340 255 185 267
internal_count=595 340 255 185 267
is_linear=0
shrinkage=0.025


Tree=56
num_leaves=5
num_cat=0
split_feature=120 49 158 151
split_gain=0.596442 0.610975 0.533641 0.401999
threshold=-1.0559802246093317 40.500000000000007 1.5000000000000002 -0.43165695018450106
decision_type=2 2 2 2
left_child=1 -1 -2 -4
right_child=2 -3 3 -5
leaf_value=0.0037454058714760092 -0.010997249561193296 -0.016276972569682569 -8.7754201534877423e-06 0.012794773606786209
leaf_weight=78 72 139 102 232
leaf_count=78 72 139 102 232
internal_value=0.000123408 -0.000912162 0.000693431 0.00112094
internal_weight=623 217 406 334
internal_count=623 217 406 334
is_linear=0
shrinkage=0.025


Tree=57
num_leaves=4
num_cat=0
split_feature=83 6 6
split_gain=0.576157 1.07428 0.638553
threshold=5.5000000000000009 145.00000000000003 305.00000000000006
decision_type=10 8 10
left_child=-1 -2 -3
right_child=1 2 -4
leaf_value=0.0076844138082090953 -0.018155202283864951 0.0090465297691920878 -0.0024151436709527311
leaf_weight=97 110 279 105
leaf_count=97 110 279 105
internal_value=0.000121644 -0.000220441 0.000398458
internal_weight=591 494 384
internal_count=591 494 384
is_linear=0
shrinkage=0.025


Tree=58
num_leaves=5
num_cat=0
split_feature=30 28 4 136
split_gain=1.00316 0.410047 1.33742 0.401632
threshold=270.00000000000006 46.071428571428577 29.985000000000003 73.61598022460943
decision_type=2 2 10 2
left_child=-1 3 -3 -2
right_child=1 2 -4 -5
leaf_value=-0.01415624268858331 0.019888368552627274 0.017990750494360757 -0.015506235803508479 -0.00071122575039847416
leaf_weight=84 192 126 99 79
leaf_count=84 192 126 99 79
internal_value=7.69232e-05 0.000518962 -0.00025 0.00116848
internal_weight=580 496 225 271
internal_count=580 496 225 271
is_linear=0
shrinkage=0.025


Tree=59
num_leaves=6
num_cat=0
split_feature=14 46 77 18 51
split_gain=0.927044 0.885248 0.632633 0.330053 0.320081
threshold=-1.4999999999999998 27.188282283760557 -1.0000000180025095e-35 9.3541666666666696 185.00000000000003
decision_type=8 2 10 8 2
left_child=1 -1 -3 4 -2
right_child=3 2 -4 -5 -6
leaf_value=0.0051630404893561153 0.010733109023394926 0.008614613501433898 -0.020003642036370339 0.017272162265881696 -0.002582742101721552
leaf_weight=70 71 75 187 116 97
leaf_count=70 71 75 187 116 97
internal_value=9.66184e-05 -0.00078635 -0.00146067 0.00114187 0.000375723
internal_weight=616 332 262 284 168
internal_count=616 332 262 284 168
is_linear=0
shrinkage=0.025


Tree=60
num_leaves=5
num_cat=0
split_feature=13 38 92 45
split_gain=0.681808 0.396193 0.430911 0.123818
threshold=-1.4999999999999998 1.5000000000000002 43.500000000000007 2428.6739130434785
decision_type=8 2 10 2
left_child=-1 2 -2 -3
right_child=1 3 -4 -5
leaf_value=-0.014070508749550237 0.0049109588324452048 0.019969351310552604 -0.017437645490094897 0.016539502526856452
leaf_weight=89 272 78 83 95
leaf_count=89 272 78 83 95
internal_value=0.000381833 0.000731707 0.000229167 0.00169944
internal_weight=617 528 355 173
internal_count=617 528 355 173
is_linear=0
shrinkage=0.025


Tree=61
num_leaves=6
num_cat=0
split_feature=122 63 97 108 47
split_gain=1.02585 0.807485 0.531054 0.4988 0.327258
threshold=49.685383566151522 49.500000000000007 57.500000000000007 25.500000000000004 937.50000000000011
decision_type=2 2 10 10 2
left_child=1 3 4 -1 -2
right_child=2 -3 -4 -5 -6
leaf_value=0.0032290688256715579 0.013993199628376441 -0.020669534803707354 -0.0040603809553365752 -0.0014530535127064423 1.2457550761114785e-06
leaf_weight=72 188 74 103 86 71
leaf_count=72 188 74 103 86 71
internal_value=5.00836e-05 -0.00122363 0.000885559 -0.000153374 0.00148674
internal_weight=594 232 362 158 259
internal_count=594 232 362 158 259
is_linear=0
shrinkage=0.025


Tree=62
num_leaves=5
num_cat=0
split_feature=32 141 161 103
split_gain=0.933076 0.542847 0.396992 0.257284
threshold=1837.5000000000002 12.638689730368698 1.0000000180025095e-35 28.500000000000004
decision_type=10 2 2 10
left_child=-1 3 -3 -2
right_child=1 2 -4 -5
leaf_value=-0.016781833153923991 0.0092759721423870227 0.0069498078875761459 -0.0057919669559750517 0.0013422625655445336
leaf_weight=92 228 76 119 72
leaf_count=92 228 76 119 72
internal_value=0.000274493 0.000715 -0.0002875 0.00137705
internal_weight=587 495 195 300
internal_count=587 495 195 300
is_linear=0
shrinkage=0.025


Tree=63
num_leaves=5
num_cat=0
split_feature=14 71 29 1
split_gain=0.564877 0.530456 0.596647 0.0587218
threshold=-3.4999999999999996 32.500000000000007 57.152173913043484 49.500000000000007
decision_type=8 2 2 8
left_child=-1 2 -2 -3
right_child=1 3 -4 -5
leaf_value=-0.019465111221547576 0.004306940033089999 0.0041092434540875664 -0.015035996355004036 0.034363375762519126
leaf_weight=116 270 70 74 70
leaf_count=116 270 70 74 70
internal_value=3.30579e-05 0.000419223 -0.000100286 0.00168966
internal_weight=600 484 344 140
internal_count=600 484 344 140
is_linear=0
shrinkage=0.025


Tree=64
num_leaves=5
num_cat=0
split_feature=4 4 6 150
split_gain=0.59984 0.770195 0.725751 0.337735
threshold=30.085000000000004 29.995000000000001 305.00000000000006 0.36876293119226028
decision_type=8 10 10 2
left_child=1 2 -1 -2
right_child=3 -3 -4 -5
leaf_value=0.005405529361971576 0.015170636743068703 -0.01722360132897274 -0.0052565679493081783 0.0022462217867019398
leaf_weight=242 110 81 76 94
leaf_count=242 110 81 76 94
internal_value=0.000127467 -0.00042698 0.000123839 0.0012201
internal_weight=603 399 318 204
internal_count=603 399 318 204
is_linear=0
shrinkage=0.025


Tree=65
num_leaves=4
num_cat=0
split_feature=13 46 46
split_gain=0.7535 0.498625 0.419767
threshold=-1.4999999999999998 34.653041077295661 52.104458753362543
decision_type=8 2 2
left_child=-1 -2 -3
right_child=1 2 -4
leaf_value=-0.022769314021065919 -0.00066626210693092368 0.011347907314737726 0.0023811515299693164
leaf_weight=83 112 134 259
leaf_count=83 112 134 259
internal_value=0.000278246 0.000651961 0.00107412
internal_weight=588 505 393
internal_count=588 505 393
is_linear=0
shrinkage=0.025


Tree=66
num_leaves=4
num_cat=0
split_feature=13 90 47
split_gain=0.864417 0.439137 0.294487
threshold=-1.4999999999999998 6.5000000000000009 512.50000000000011
decision_type=8 8 2
left_child=-1 -2 -3
right_child=1 2 -4
leaf_value=-0.027319993703339915 -0.010095666282193981 -9.5948016399701309e-05 0.010874384230524354
leaf_weight=87 86 90 353
leaf_count=87 86 90 353
internal_value=0.000297907 0.000688202 0.00101004
internal_weight=616 529 443
internal_count=616 529 443
is_linear=0
shrinkage=0.025


Tree=67
num_leaves=5
num_cat=0
split_feature=78 28 33 139
split_gain=0.729239 0.696856 0.633979 0.308703
threshold=2.5000000000000004 53.214285714285722 214.50000000000003 28.462995605468794
decision_type=8 2 2 2
left_child=2 -2 -1 -4
right_child=1 -3 3 -5
leaf_value=-0.014662430351587291 0.00082436228805833698 -0.020083143018886151 7.5691884080835846e-05 0.01467393048987406
leaf_weight=71 128 95 131 202
leaf_count=71 128 95 131 202
internal_value=-0.000122626 -0.00126096 0.000501223 0.000968935
internal_weight=627 223 404 333
internal_count=627 223 404 333
is_linear=0
shrinkage=0.025


Tree=68
num_leaves=4
num_cat=0
split_feature=32 146 91
split_gain=0.435254 0.44672 0.25272
threshold=1768.5000000000002 15.535522548000001 45.500000000000007
decision_type=8 10 8
left_child=-1 2 -2
right_child=1 -3 -4
leaf_value=-0.016150528880879277 0.00012190170920194433 -0.0020829575103890052 0.012558228949745485
leaf_weight=73 93 121 303
leaf_count=73 93 121 303
internal_value=0.000285714 0.000550766 0.0009601
internal_weight=590 517 396
internal_count=590 517 396
is_linear=0
shrinkage=0.025


Tree=69
num_leaves=4
num_cat=0
split_feature=13 47 44
split_gain=0.68178 0.388946 0.721883
threshold=-1.4999999999999998 932.50000000000011 5841.5000000000009
decision_type=8 2 2
left_child=-1 2 -2
right_child=1 -3 -4
leaf_value=-0.021463013791252619 -0.0017271674974505113 -0.0013059138062527023 0.010574382089647184
leaf_weight=83 179 74 270
leaf_count=83 179 74 270
internal_value=0.000180033 0.000525568 0.000809471
internal_weight=606 523 449
internal_count=606 523 449
is_linear=0
shrinkage=0.025


Tree=70
num_leaves=5
num_cat=0
split_feature=151 136 150 102
split_gain=0.43729 0.535572 0.595387 0.313769
threshold=-0.88264628153994396 54.779014282226612 0.77332218843568057 42.500000000000007
decision_type=2 2 2 10
left_child=-1 2 -2 -3
right_child=1 3 -4 -5
leaf_value=-0.0014678910493963588 0.0011543819473841118 0.018365430379014221 -0.011018017318450344 0.0034458506179519373
leaf_weight=71 188 100 86 183
leaf_count=71 188 100 86 183
internal_value=0.000221169 0.000467082 -0.000304659 0.00122396
internal_weight=628 557 274 283
internal_count=628 557 274 283
is_linear=0
shrinkage=0.025


Tree=71
num_leaves=5
num_cat=0
split_feature=83 66 139 44
split_gain=0.919114 0.853283 0.665444 0.413519
threshold=5.5000000000000009 14.500000000000002 38.254972534179736 5211.5000000000009
decision_type=10 2 2 2
left_child=-1 3 -3 -2
right_child=1 2 -4 -5
leaf_value=0.013936613123328763 -0.006377416672167022 0.0004995153036577995 -0.014919619470534971 0.010261222839385544
leaf_weight=91 74 125 157 170
leaf_count=91 74 125 157 170
internal_value=6.02895e-05 -0.000338983 -0.00127178 0.000722892
internal_weight=617 526 282 244
internal_count=617 526 282 244
is_linear=0
shrinkage=0.025


Tree=72
num_leaves=5
num_cat=0
split_feature=66 150 51 165
split_gain=0.719132 0.514997 0.43334 0.460728
threshold=15.500000000000002 0.153890576704062 155.00000000000003 1.0000000180025095e-35
decision_type=2 2 2 2
left_child=2 -2 -1 -4
right_child=1 -3 3 -5
leaf_value=-0.0022352060839203065 0.0044963838281932194 -0.033477856264431081 -2.0589839963952135e-05 0.014734729472118955
leaf_weight=109 74 94 141 182
leaf_count=109 74 94 141 182
internal_value=-7.43801e-05 -0.00144509 0.000457666 0.000922256
internal_weight=600 168 432 323
internal_count=600 168 432 323
is_linear=0
shrinkage=0.025


Tree=73
num_leaves=4
num_cat=0
split_feature=147 32 72
split_gain=0.614144 0.727473 0.447715
threshold=14.384743100000003 2569.0000000000005 26.500000000000004
decision_type=8 8 10
left_child=1 -1 -3
right_child=-2 2 -4
leaf_value=-0.014123803004955205 0.0077689191385344903 0.0054513968967138402 -0.0076302747691791659
leaf_weight=83 132 298 105
leaf_count=83 132 298 105
internal_value=0.000345104 -6.10997e-05 0.000373775
internal_weight=618 486 403
internal_count=618 486 403
is_linear=0
shrinkage=0.025


Tree=74
num_leaves=5
num_cat=0
split_feature=13 88 83 30
split_gain=0.861228 0.460596 0.522082 0.244399
threshold=-1.4999999999999998 24.500000000000004 6.5000000000000009 755.50000000000011
decision_type=10 8 10 2
left_child=-1 2 -2 -3
right_child=1 3 -4 -5
leaf_value=-0.02586997792504386 0.0086410066731475912 0.017525910356142177 -0.0014726507842409478 0.0022404173570454533
leaf_weight=77 85 180 195 71
leaf_count=77 85 180 195 71
internal_value=0.000513866 0.00088153 0.000157895 0.00165039
internal_weight=608 531 280 251
internal_count=608 531 280 251
is_linear=0
shrinkage=0.025


Tree=75
num_leaves=5
num_cat=0
split_feature=13 88 72 133
split_gain=0.685955 0.615495 0.887333 0.26883
threshold=-1.4999999999999998 24.500000000000004 61.500000000000007 37.463023071289108
decision_type=8 8 10 2
left_child=-1 2 -2 -3
right_child=1 3 -4 -5
leaf_value=-0.023973734584345624 -0.0043709877622763365 0.00098994683028897279 0.014284112842957121 0.013545561714005972
leaf_weight=88 176 71 92 176
leaf_count=88 176 71 92 176
internal_value=8.63488e-05 0.000447115 -0.0003663 0.00133929
internal_weight=603 515 268 247
internal_count=603 515 268 247
is_linear=0
shrinkage=0.025


Tree=76
num_leaves=5
num_cat=0
split_feature=6 30 83 120
split_gain=0.772952 1.1594 0.867552 0.199567
threshold=155.00000000000003 833.50000000000011 6.5000000000000009 -1.823997802734336
decision_type=8 2 10 2
left_child=2 3 -1 -2
right_child=1 -3 -4 -5
leaf_value=0.0033520135472202769 0.00055048865748535058 -0.0020997349936997837 -0.019913952161816455 0.010584732051696018
leaf_weight=90 76 83 89 280
leaf_count=90 76 83 89 280
internal_value=0.000144462 0.00071509 -0.00120924 0.00134349
internal_weight=618 439 179 356
internal_count=618 439 179 356
is_linear=0
shrinkage=0.025


Tree=77
num_leaves=5
num_cat=0
split_feature=83 88 138 143
split_gain=0.493467 0.7413 1.00343 0.357773
threshold=5.5000000000000009 18.500000000000004 54.428001098632855 9.7816253080000006
decision_type=10 10 2 10
left_child=-1 2 -2 -3
right_child=1 3 -4 -5
leaf_value=0.0070294619513566583 -0.017540611719239634 0.012121163882538449 0.0091251678501159724 -0.0006519134054928452
leaf_weight=103 105 158 73 188
leaf_count=103 105 158 73 188
internal_value=9.88925e-05 -0.000207939 -0.00150273 0.000455841
internal_weight=627 524 178 346
internal_count=627 524 178 346
is_linear=0
shrinkage=0.025


Tree=78
num_leaves=5
num_cat=0
split_feature=17 33 65 47
split_gain=0.516288 0.516944 0.599133 0.222998
threshold=-0.015000000000000567 88886.500000000015 11.500000000000002 653.50000000000011
decision_type=10 2 2 2
left_child=3 2 -2 -1
right_child=1 -3 -4 -5
leaf_value=0.00093532571726428018 0.00027737065160308598 0.0062254896858995913 -0.0082837401674087947 0.022760694578506657
leaf_weight=91 200 111 131 90
leaf_count=91 200 111 131 90
internal_value=8.35988e-05 -0.000369127 -0.000870536 0.00119624
internal_weight=623 442 331 181
internal_count=623 442 331 181
is_linear=0
shrinkage=0.025


Tree=79
num_leaves=5
num_cat=0
split_feature=32 28 65 130
split_gain=0.67892 0.3506 0.56209 0.220879
threshold=3209.0000000000005 53.214285714285722 10.500000000000002 36.207035067943465
decision_type=8 2 2 2
left_child=-1 3 -3 -2
right_child=1 2 -4 -5
leaf_value=-0.010533917369121218 0.00056124031253308975 0.016241821311991544 -0.023501150121409194 0.0077259228023037743
leaf_weight=118 81 90 71 224
leaf_count=118 81 90 71 224
internal_value=0.000220713 0.000658174 -0.000256024 0.00115323
internal_weight=584 466 161 305
internal_count=584 466 161 305
is_linear=0
shrinkage=0.025


Tree=80
num_leaves=5
num_cat=0
split_feature=66 15 6 144
split_gain=0.952393 0.959723 0.669219 0.182764
threshold=15.500000000000002 -5.4999999999999991 155.00000000000003 9.7816253080000006
decision_type=2 10 8 8
left_child=2 -2 -1 -4
right_child=1 -3 3 -5
leaf_value=-0.0047446021188562639 -0.033668933711642854 0.0027131941782777887 0.0073492163795255624 0.012467078312368606
leaf_weight=119 75 99 132 198
leaf_count=119 75 99 132 198
internal_value=0.000362261 -0.00117318 0.00097467 0.00155224
internal_weight=623 174 449 330
internal_count=623 174 449 330
is_linear=0
shrinkage=0.025


Tree=81
num_leaves=4
num_cat=0
split_feature=89 44 44
split_gain=0.509532 0.242171 0.270396
threshold=3.5000000000000004 3831.0000000000005 5211.5000000000009
decision_type=8 2 2
left_child=-1 -2 -3
right_child=1 2 -4
leaf_value=-0.011063309648366573 0.01145322602031941 -0.0029222516872923683 0.002013074720575618
leaf_weight=80 74 70 378
leaf_count=80 74 70 378
internal_value=0.000370676 0.000664137 0.000419426
internal_weight=602 522 448
internal_count=602 522 448
is_linear=0
shrinkage=0.025


Tree=82
num_leaves=6
num_cat=0
split_feature=72 38 46 46 44
split_gain=0.548752 0.792175 0.642462 0.416456 0.217238
threshold=25.500000000000004 5.5000000000000009 73.425593551463507 57.191358268944334 11346.000000000002
decision_type=10 2 2 2 2
left_child=3 2 -2 4 -1
right_child=1 -3 -4 -5 -6
leaf_value=0.014782727072781025 -0.029993101006139441 0.0088523222040173214 -0.00047213634934405581 -0.010030036667652897 0.00020217114450523136
leaf_weight=174 73 84 76 75 107
leaf_count=174 73 84 76 75 107
internal_value=0.000239899 -0.000682773 -0.00176948 0.000858726 0.00130245
internal_weight=589 233 149 356 281
internal_count=589 233 149 356 281
is_linear=0
shrinkage=0.025


Tree=83
num_leaves=4
num_cat=0
split_feature=147 102 93
split_gain=0.350249 0.468181 0.540544
threshold=14.384743100000003 26.500000000000004 14.500000000000002
decision_type=8 8 8
left_child=1 -1 -3
right_child=-2 2 -4
leaf_value=-0.012062556056768845 0.0057091941369890251 -0.0026509538925176684 0.010754740266459914
leaf_weight=91 137 157 227
leaf_count=91 137 157 227
internal_value=0.000405186 6.77084e-05 0.000462725
internal_weight=612 475 384
internal_count=612 475 384
is_linear=0
shrinkage=0.025


Tree=84
num_leaves=5
num_cat=0
split_feature=32 120 49 130
split_gain=0.661756 0.663965 0.966063 0.310874
threshold=1837.5000000000002 -0.99601318359371038 39.500000000000007 36.207035067943465
decision_type=8 2 2 2
left_child=-1 2 -2 -3
right_child=1 3 -4 -5
leaf_value=-0.014305668906289882 0.0058756461461914036 -0.00051766465280569864 -0.017093450075437219 0.0066707886837723378
leaf_weight=101 78 82 129 226
leaf_count=101 78 82 129 226
internal_value=-8.05144e-06 0.000350962 -0.00071934 0.00108626
internal_weight=616 515 207 308
internal_count=616 515 207 308
is_linear=0
shrinkage=0.025


Tree=85
num_leaves=5
num_cat=0
split_feature=93 120 12 114
split_gain=0.806971 0.9956 0.448141 0.328892
threshold=15.500000000000002 -0.45502197265620831 0.34500000000000008 1.0000000180025095e-35
decision_type=8 2 10 10
left_child=1 -1 3 -2
right_child=2 -3 -4 -5
leaf_value=-0.010367197279263732 0.010375875908041758 0.0053831975447204798 -0.0011399159207199248 -0.0019193998705078288
leaf_weight=92 244 103 70 71
leaf_count=92 244 103 70 71
internal_value=0.000119658 -0.0011625 0.000788462 0.00119531
internal_weight=580 195 385 315
internal_count=580 195 385 315
is_linear=0
shrinkage=0.025


Tree=86
num_leaves=5
num_cat=0
split_feature=32 17 88 120
split_gain=0.666352 0.545379 0.583844 0.214224
threshold=1837.5000000000002 0.01500000000000057 27.500000000000004 -1.3280230712890242
decision_type=10 10 8 2
left_child=-1 3 -3 -2
right_child=1 2 -4 -5
leaf_value=-0.013282415023675484 0.0011882185720109972 -0.01592221239332418 0.0021381269557176718 0.011163360690475138
leaf_weight=104 83 117 120 207
leaf_count=104 83 117 120 207
internal_value=7.46856e-05 0.000446429 -0.000423554 0.00116949
internal_weight=631 527 237 290
internal_count=631 527 237 290
is_linear=0
shrinkage=0.025


Tree=87
num_leaves=6
num_cat=0
split_feature=66 46 46 44 71
split_gain=0.597446 0.445953 0.722826 0.361125 0.125381
threshold=14.500000000000002 25.999300165586124 42.581580170441718 5548.0000000000009 9.0000000000000018
decision_type=2 2 2 2 2
left_child=3 -2 -3 -1 -5
right_child=1 2 -4 4 -6
leaf_value=-0.0079346537611127057 0.00408416418027899 -0.019514976288323369 -0.00021891126419863331 0.0034741887687158263 0.018387224859733899
leaf_weight=93 70 75 176 84 98
leaf_count=93 70 75 176 84 98
internal_value=-8.31937e-06 -0.000743865 -0.00124023 0.000830357 0.00147059
internal_weight=596 321 251 275 182
internal_count=596 321 251 275 182
is_linear=0
shrinkage=0.025


Tree=88
num_leaves=6
num_cat=0
split_feature=136 63 122 30 19
split_gain=0.811747 1.03864 0.301291 0.171522 0.139076
threshold=54.779014282226612 49.500000000000007 76.515561204993276 402.50000000000006 29.500000000000004
decision_type=2 2 2 2 8
left_child=1 3 4 -1 -2
right_child=2 -3 -4 -5 -6
leaf_value=0.0085475475297058425 0.0053649468758821929 -0.014639319236673644 0.00068063241389948763 0.0005272532433430562 0.013997389508121662
leaf_weight=77 76 101 70 94 206
leaf_count=77 76 101 70 94 206
internal_value=0.000683625 -0.00032491 0.00147059 0.000838068 0.00182927
internal_weight=624 272 352 171 282
internal_count=624 272 352 171 282
is_linear=0
shrinkage=0.025


Tree=89
num_leaves=7
num_cat=0
split_feature=120 88 32 72 6 131
split_gain=0.713856 0.819835 0.627255 0.79111 0.442961 0.215436
threshold=-1.0149890136718296 14.500000000000002 16183.000000000002 41.500000000000007 245.00000000000003 9.3153411450366548
decision_type=2 10 8 10 10 2
left_child=1 -1 3 -2 -3 -4
right_child=2 4 5 -5 -6 -7
leaf_value=-0.0089356018530237363 -0.028053475669098805 0.018648081665612552 0.014936893056298035 0.0025652766554712853 -0.0027394401893764218 0.0018893621100313158
leaf_weight=70 73 82 125 111 73 106
leaf_count=70 73 82 125 111 73 106
internal_value=0 -0.00111957 0.000613095 -0.000449735 -4.68749e-05 0.00147246
internal_weight=640 225 415 184 155 231
internal_count=640 225 415 184 155 231
is_linear=0
shrinkage=0.025


Tree=90
num_leaves=5
num_cat=0
split_feature=78 65 47 33
split_gain=0.653401 0.439145 0.431412 0.319998
threshold=2.5000000000000004 11.500000000000002 490.50000000000006 88886.500000000015
decision_type=10 2 2 2
left_child=1 2 -1 -3
right_child=-2 3 -4 -5
leaf_value=-0.0015542183145144748 -0.0083864491494406272 -0.0018147371752762044 0.0089075727608343338 0.0089589959560798498
leaf_weight=70 83 163 230 71
leaf_count=70 83 163 230 71
internal_value=0.000422026 0.000751392 0.00137705 -4.18409e-05
internal_weight=617 534 300 234
internal_count=617 534 300 234
is_linear=0
shrinkage=0.025


Tree=91
num_leaves=6
num_cat=0
split_feature=46 17 65 47 10
split_gain=0.470921 0.933289 0.284892 0.256828 0.0109681
threshold=58.826362933389326 -0.0099999999999997851 11.500000000000002 876.50000000000011 53.500000000000007
decision_type=2 10 2 2 8
left_child=2 -2 4 -4 -1
right_child=1 -3 3 -5 -6
leaf_value=0.0060955529401254321 0.009068456681050871 -0.008851295670129598 -0.00027525937780511367 0.0090636420076334566 0.015028374697752887
leaf_weight=70 112 125 112 113 82
leaf_count=70 112 125 112 113 82
internal_value=0.000533118 -0.000320248 0.00107984 0.000467391 0.00191083
internal_weight=614 237 377 225 152
internal_count=614 237 377 225 152
is_linear=0
shrinkage=0.025


Tree=92
num_leaves=6
num_cat=0
split_feature=66 49 48 150 4
split_gain=0.754521 0.761676 0.876 0.384031 0.0938673
threshold=14.500000000000002 39.500000000000007 65.500000000000014 0.75110426010738141 29.985000000000003
decision_type=2 2 2 2 10
left_child=3 -2 -3 4 -1
right_child=1 2 -4 -5 -6
leaf_value=0.02110704272098889 0.0055850106629860797 -0.029438066791693973 -0.0011933105544342842 -0.00025279494351377794 0.0055166104935812782
leaf_weight=121 136 73 125 78 81
leaf_count=121 136 73 125 78 81
internal_value=0.000169629 -0.000619469 -0.00160099 0.00112281 0.00169082
internal_weight=614 334 198 280 202
internal_count=614 334 198 280 202
is_linear=0
shrinkage=0.025


Tree=93
num_leaves=6
num_cat=0
split_feature=88 83 48 102 139
split_gain=0.7345 1.49396 1.11034 0.497249 0.397188
threshold=16.500000000000004 5.5000000000000009 73.500000000000014 26.500000000000004 46.201987915039105
decision_type=8 10 2 8 2
left_child=1 -1 -3 -2 -5
right_child=3 2 -4 4 -6
leaf_value=0.0055289687693654832 -0.0022151852354262897 -0.016640238462462372 -0.0061584343857753916 0.014809844842372988 7.046165903565072e-05
leaf_weight=73 112 82 72 160 110
leaf_count=73 112 82 72 160 110
internal_value=-7.73615e-05 -0.00119612 -0.00257862 0.000581395 0.00116364
internal_weight=609 227 154 382 270
internal_count=609 227 154 382 270
is_linear=0
shrinkage=0.025


Tree=94
num_leaves=4
num_cat=0
split_feature=36 46 74
split_gain=0.618258 1.14361 0.442361
threshold=10.500000000000002 64.33092879126157 1.0000000180025095e-35
decision_type=2 2 8
left_child=1 2 -1
right_child=-2 -3 -4
leaf_value=0.01623167914891795 0.02600304512942489 -0.016462389095194194 -0.00021478875112546721
leaf_weight=204 93 113 182
leaf_count=204 93 113 182
internal_value=0.000502513 0.000133929 0.000792839
internal_weight=592 499 386
internal_count=592 499 386
is_linear=0
shrinkage=0.025


Tree=95
num_leaves=7
num_cat=0
split_feature=65 120 33 109 4 45
split_gain=0.773774 0.938355 1.04016 0.309701 0.301769 0.00685667
threshold=10.500000000000002 0.4739758300781603 3952.0000000000005 6.5000000000000009 29.985000000000003 2776.3043478260875
decision_type=2 2 2 8 10 2
left_child=3 2 -2 4 -1 -5
right_child=1 -3 -4 5 -6 -7
leaf_value=0.016952536432780756 -0.021070498301951925 0.02308957243814699 -0.00030634455658310416 0.0023476616874803739 -0.0094173512394787051 0.017337247094009339
leaf_weight=73 93 76 167 70 71 74
leaf_count=73 93 76 167 70 71 74
internal_value=0.000127186 -0.000674487 -0.00139623 0.00107509 0.000201342 0.00187919
internal_weight=624 336 260 288 144 144
internal_count=624 336 260 288 144 144
is_linear=0
shrinkage=0.025


Tree=96
num_leaves=4
num_cat=0
split_feature=13 112 139
split_gain=0.731354 0.552106 0.35945
threshold=-1.4999999999999998 1.0000000180025095e-35 42.385996704101608
decision_type=10 8 2
left_child=-1 2 -2
right_child=1 -3 -4
leaf_value=-0.016369521933589159 0.0047553827489690975 -0.0036052692698387043 0.0016143895354844011
leaf_weight=85 237 89 188
leaf_count=85 237 89 188
internal_value=0.000318709 0.000684008 0.00106395
internal_weight=599 514 425
internal_count=599 514 425
is_linear=0
shrinkage=0.025


Tree=97
num_leaves=6
num_cat=0
split_feature=66 15 48 39 177
split_gain=0.554363 0.611175 0.347659 0.602964 0.424485
threshold=15.500000000000002 -4.4999999999999991 60.500000000000007 1.2826086956521741 1.5000000000000002
decision_type=2 10 2 2 2
left_child=2 -2 4 -4 -1
right_child=1 -3 3 -5 -6
leaf_value=0.00073747750229835758 -0.022976894133199942 0.00052762557952402034 -0.0066754852754827843 0.022581406551046589 0.010745348850615304
leaf_weight=75 94 88 167 79 130
leaf_count=75 94 88 167 79 130
internal_value=0.000121473 -0.00101604 0.000597588 -1.99202e-05 0.00134524
internal_weight=633 182 451 246 205
internal_count=633 182 451 246 205
is_linear=0
shrinkage=0.025


Tree=98
num_leaves=5
num_cat=0
split_feature=15 97 38 17
split_gain=0.631485 0.578324 0.751194 0.237957
threshold=-8.4999999999999982 44.500000000000007 2.5000000000000004 1.0000000180025095e-35
decision_type=8 8 2 10
left_child=-1 3 -3 -2
right_child=1 2 -4 -5
leaf_value=-0.015333580046533547 0.011806862120750689 -0.010551092556743854 0.01521346516891316 0.00068045410539622011
leaf_weight=85 169 111 106 145
leaf_count=85 169 111 106 145
internal_value=0.000177134 0.000508396 -0.000461712 0.00119122
internal_weight=616 531 217 314
internal_count=616 531 217 314
is_linear=0
shrinkage=0.025


Tree=99
num_leaves=5
num_cat=0
split_feature=44 140 45 50
split_gain=0.84927 0.941292 0.349333 0.432363
threshold=4948.5000000000009 7.605583339807283 2716.7826086956525 285.00000000000006
decision_type=2 2 2 2
left_child=1 -1 -2 -4
right_child=2 -3 3 -5
leaf_value=0.010162627053071534 0.016262813119452713 -0.013627702694745164 -0.00028024777513428571 0.0042737193336256077
leaf_weight=89 133 91 197 140
leaf_count=89 133 91 197 140
internal_value=0.000374046 -0.00105405 0.000936842 0.000475146
internal_weight=650 180 470 337
internal_count=650 180 470 337
is_linear=0
shrinkage=0.025


Tree=100
num_leaves=6
num_cat=0
split_feature=149 96 139 4 15
split_gain=0.382738 0.608686 0.39309 0.680485 0.261001
threshold=83.500000000000014 44.500000000000007 45.283997802734426 29.975000000000005 -5.4999999999999991
decision_type=2 10 2 10 10
left_child=1 -1 4 -4 -2
right_child=2 -3 3 -5 -6
leaf_value=0.00053657293172713633 0.00088741866984920622 -0.022311631249126534 0.0048726766644823349 -0.013169849153170014 0.0169300916380359
leaf_weight=100 90 70 121 109 119
leaf_count=100 90 70 121 109 119
internal_value=0.000435668 -0.000542857 0.000827703 8.51065e-05 0.00160047
internal_weight=609 170 439 230 209
internal_count=609 170 439 230 209
is_linear=0
shrinkage=0.025


Tree=101
num_leaves=5
num_cat=0
split_feature=14 169 71 44
split_gain=0.655979 0.640316 0.289788 0.144844
threshold=-3.4999999999999996 1.5000000000000002 6.5000000000000009 4253.5000000000009
decision_type=8 2 2 2
left_child=-1 2 -2 -3
right_child=1 3 -4 -5
leaf_value=-0.01480109727583526 -0.0139652660163229 0.014969245691711664 0.0024215170672724834 0.0064426020931003351
leaf_weight=118 83 79 107 213
leaf_count=118 83 79 107 213
internal_value=0.000198347 0.000616017 -0.000487179 0.0013468
internal_weight=600 482 190 292
internal_count=600 482 190 292
is_linear=0
shrinkage=0.025


Tree=102
num_leaves=4
num_cat=0
split_feature=137 94 65
split_gain=0.889097 0.51191 0.294989
threshold=76.667020874023493 3.5000000000000004 15.500000000000002
decision_type=2 8 2
left_child=1 -1 -3
right_child=-2 2 -4
leaf_value=-0.0058162937955176554 -0.011811782151172045 0.0047370679208783278 -0.013264751618605767
leaf_weight=72 72 403 89
leaf_count=72 72 403 89
internal_value=0.000366615 0.000711775 0.00100604
internal_weight=636 564 492
internal_count=636 564 492
is_linear=0
shrinkage=0.025


Tree=103
num_leaves=7
num_cat=0
split_feature=48 39 4 66 39 28
split_gain=0.422941 0.649212 0.764862 0.535752 0.144976 0.0259179
threshold=59.500000000000007 0.5434782608695653 30.055000000000003 15.500000000000002 2.456521739130435 35.571428571428577
decision_type=2 2 10 2 2 2
left_child=3 2 -2 5 -3 -1
right_child=1 4 -4 -5 -6 -7
leaf_value=0.014134229031090212 -0.019255173446538237 0.015935010677745175 0.0041205263606973247 -0.0038227050858421398 0.01618493958172414 0.0059854376561375884
leaf_weight=119 104 73 78 88 70 70
leaf_count=119 104 73 78 88 70 70
internal_value=0.000576606 -2.27272e-05 -0.00101604 0.00128546 0.00119932 0.0020232
internal_weight=602 325 182 277 143 189
internal_count=602 325 182 277 143 189
is_linear=0
shrinkage=0.025


Tree=104
num_leaves=5
num_cat=0
split_feature=13 142 93 108
split_gain=0.683659 0.529628 0.555075 0.416896
threshold=-1.4999999999999998 6.3292869640000005 18.500000000000004 26.500000000000004
decision_type=8 8 10 10
left_child=-1 2 -2 -3
right_child=1 3 -4 -5
leaf_value=-0.026060796852499658 -0.0036407209174391265 0.0056091986167088118 0.0097482073532514073 0.00014402875400408493
leaf_weight=81 101 178 82 156
leaf_count=81 101 178 82 156
internal_value=0.000107794 0.000454981 -0.000598404 0.0010472
internal_weight=598 517 183 334
internal_count=598 517 183 334
is_linear=0
shrinkage=0.025


Tree=105
num_leaves=5
num_cat=0
split_feature=85 131 103 65
split_gain=0.652915 0.35134 0.510171 0.132275
threshold=6.5000000000000009 9.6575308075378228 25.500000000000004 10.500000000000002
decision_type=8 2 10 2
left_child=-1 2 -2 -3
right_child=1 3 -4 -5
leaf_value=-0.0083607639654510891 0.0074747659639409214 0.002430297966701312 -0.013072325151049178 0.00086974705764646012
leaf_weight=108 209 91 89 94
leaf_count=108 209 91 89 94
internal_value=0.000373322 0.000773566 0.000214522 0.00161842
internal_weight=591 483 298 185
internal_count=591 483 298 185
is_linear=0
shrinkage=0.025


Tree=106
num_leaves=6
num_cat=0
split_feature=142 120 158 50 145
split_gain=0.7657 0.678124 0.483933 0.282906 0.242487
threshold=6.3292869640000005 -1.1470263671874574 1.5000000000000002 195.00000000000003 10.932404756000002
decision_type=8 2 2 2 10
left_child=1 -1 -2 -3 -4
right_child=2 3 4 -5 -6
leaf_value=-0.017938027488692852 -0.0073643244588338279 -0.0018547087846163251 0.0020180818713783403 0.010619868297881065 0.0048201401001056257
leaf_weight=79 73 71 106 70 215
leaf_count=79 73 71 106 70 215
internal_value=0.000290792 -0.000866667 0.000952381 0.00015411 0.0013727
internal_weight=614 220 394 141 321
internal_count=614 220 394 141 321
is_linear=0
shrinkage=0.025


Tree=107
num_leaves=4
num_cat=0
split_feature=19 112 34
split_gain=0.335097 0.641863 0.251914
threshold=25.500000000000004 1.0000000180025095e-35 17.500000000000004
decision_type=8 10 2
left_child=-1 2 -2
right_child=1 -3 -4
leaf_value=-0.013039280517627514 0.0059205021368085586 -0.016395602308434547 0.00037364938081480421
leaf_weight=121 214 79 176
leaf_count=121 214 79 176
internal_value=0.000201681 0.000511603 0.000936709
internal_weight=590 469 390
internal_count=590 469 390
is_linear=0
shrinkage=0.025


Tree=108
num_leaves=5
num_cat=0
split_feature=107 44 3 84
split_gain=0.584857 0.429576 0.451599 0.390446
threshold=61.500000000000007 5116.5000000000009 43.500000000000007 7.5000000000000009
decision_type=10 2 8 10
left_child=1 3 -3 -1
right_child=-2 2 -4 -5
leaf_value=-0.006348950945008743 -0.012239486774975215 -0.00017292720912886431 0.0060178466035440839 0.0030766396429539105
leaf_weight=77 70 74 287 81
leaf_count=77 70 74 287 81
internal_value=0.000450337 0.000749046 0.00122268 -0.000306748
internal_weight=589 519 361 158
internal_count=589 519 361 158
is_linear=0
shrinkage=0.025


Tree=109
num_leaves=5
num_cat=0
split_feature=3 32 16 153
split_gain=0.412287 0.815759 0.498866 0.330071
threshold=72.500000000000014 6321.5000000000009 1.0000000180025095e-35 7.5000000000000009
decision_type=8 10 10 2
left_child=1 -1 -3 -2
right_child=3 2 -4 -5
leaf_value=-0.012727171417489148 0.00053972676823584444 0.0096989245638268717 -0.0024340168143048603 0.014881517267553476
leaf_weight=70 77 223 147 111
leaf_count=70 77 223 147 111
internal_value=0.000537125 0.000101124 0.000586667 0.00150259
internal_weight=628 440 370 188
internal_count=628 440 370 188
is_linear=0
shrinkage=0.025


Tree=110
num_leaves=5
num_cat=0
split_feature=44 72 14 72
split_gain=0.541161 0.671924 0.598906 0.197228
threshold=5116.5000000000009 49.000000000000007 -3.4999999999999996 9.0000000000000018
decision_type=2 10 8 10
left_child=1 -1 -2 -4
right_child=2 -3 3 -5
leaf_value=-0.0091350800124321441 -0.0035357039330301179 0.0097681494756122218 0.0082843165081687951 0.0018414849772429706
leaf_weight=114 92 73 137 201
leaf_count=114 92 73 137 201
internal_value=0.000301447 -0.000794271 0.000793104 0.0012828
internal_weight=617 187 430 338
internal_count=617 187 430 338
is_linear=0
shrinkage=0.025


Tree=111
num_leaves=6
num_cat=0
split_feature=14 66 5 2 107
split_gain=0.516203 0.785336 0.559351 0.31052 0.0851844
threshold=-1.4999999999999998 15.500000000000002 9.5000000000000018 29.500000000000004 46.500000000000007
decision_type=8 2 10 8 10
left_child=1 2 -1 -2 -5
right_child=3 -3 -4 4 -6
leaf_value=0.012919624640253409 -0.00043765276000410567 -0.032605802447174696 -0.001827667252545225 0.016238817829086125 0.0080012006352820266
leaf_weight=134 78 104 87 104 93
leaf_count=134 78 104 87 104 93
internal_value=0.000487603 -0.000174242 0.000652655 0.00127679 0.00179455
internal_weight=600 325 221 275 197
internal_count=600 325 221 275 197
is_linear=0
shrinkage=0.025


Tree=112
num_leaves=4
num_cat=0
split_feature=85 151 113
split_gain=0.538967 0.456583 0.289338
threshold=6.5000000000000009 0.91281223188962046 1.0000000180025095e-35
decision_type=8 2 10
left_child=-1 2 -2
right_child=1 -3 -4
leaf_value=-0.0072432818209536695 0.0046198896917967426 -0.0017013175885359066 -0.0098045226128255641
leaf_weight=110 363 73 75
leaf_count=110 363 73 75
internal_value=0.000275559 0.000625 0.000936795
internal_weight=621 511 438
internal_count=621 511 438
is_linear=0
shrinkage=0.025


Tree=113
num_leaves=6
num_cat=0
split_feature=49 120 73 12 10
split_gain=0.422372 0.767086 0.393991 0.291832 0.0197681
threshold=40.500000000000007 -1.0149890136718296 99.000000000000014 0.12500000000000003 65.500000000000014
decision_type=2 2 8 10 10
left_child=2 -2 4 -3 -1
right_child=1 3 -4 -5 -6
leaf_value=0.019185564926030529 -0.0050501376572214228 0.012520040373546721 -1.1868082980411885e-05 -0.0050461950222149355 0.012391018521364063
leaf_weight=102 127 169 74 75 70
leaf_count=102 127 169 74 75 70
internal_value=0.000542605 0 0.00133466 0.000823293 0.0019774
internal_weight=617 371 246 244 172
internal_count=617 371 246 244 172
is_linear=0
shrinkage=0.025


Tree=114
num_leaves=4
num_cat=0
split_feature=143 44 140
split_gain=0.761842 0.48077 0.678096
threshold=16.686301996000001 4360.5000000000009 7.605583339807283
decision_type=10 2 2
left_child=1 -1 -3
right_child=-2 2 -4
leaf_value=-0.0042881723176202554 -0.00040799379035065812 -0.0012909727347494967 0.0066019968575969368
leaf_weight=134 81 117 295
leaf_count=134 81 117 295
internal_value=-4.35126e-05 0.000290381 0.000719425
internal_weight=627 546 412
internal_count=627 546 412
is_linear=0
shrinkage=0.025


Tree=115
num_leaves=4
num_cat=0
split_feature=153 5 28
split_gain=0.428306 0.471642 0.483454
threshold=13.500000000000002 13.500000000000002 49.642857142857146
decision_type=2 10 2
left_child=1 2 -1
right_child=-2 -3 -4
leaf_value=0.0087502264823216599 -0.0018011805779688649 -0.003562502383362138 -0.0002791674954828354
leaf_weight=201 102 103 218
leaf_count=201 102 103 218
internal_value=-9.53894e-05 0.000189753 0.000571934
internal_weight=624 522 419
internal_count=624 522 419
is_linear=0
shrinkage=0.025


Tree=116
num_leaves=4
num_cat=0
split_feature=38 39 6
split_gain=0.565751 0.836401 0.618642
threshold=7.5000000000000009 0.282608695652174 175.00000000000003
decision_type=2 2 8
left_child=1 2 -1
right_child=-2 -3 -4
leaf_value=-0.0049412814607184483 0.02242216672479791 -0.01285951972149507 0.003014792348389873
leaf_weight=95 83 125 307
leaf_count=95 83 125 307
internal_value=-0.000113821 -0.000427631 0.00012285
internal_weight=610 527 402
internal_count=610 527 402
is_linear=0
shrinkage=0.025


Tree=117
num_leaves=5
num_cat=0
split_feature=13 4 142 19
split_gain=0.594391 0.476416 0.367795 0.125033
threshold=-1.4999999999999998 29.865000000000006 5.1785075160000007 43.500000000000007
decision_type=10 10 8 8
left_child=-1 3 -3 -2
right_child=1 2 -4 -5
leaf_value=-0.01421317039819815 0.00064327763474900741 -0.0014095612050445427 0.0012653429866325283 0.024233997550172456
leaf_weight=91 89 76 276 73
leaf_count=91 89 76 276 73
internal_value=5.32788e-05 0.00039499 -0.000112045 0.00149701
internal_weight=605 514 352 162
internal_count=605 514 352 162
is_linear=0
shrinkage=0.025


Tree=118
num_leaves=7
num_cat=0
split_feature=88 83 3 143 30 120
split_gain=0.429038 0.907491 0.681888 0.326572 0.465422 0.144366
threshold=19.500000000000004 6.5000000000000009 66.500000000000014 9.7816253080000006 515.50000000000011 -0.78700439453120896
decision_type=8 10 10 10 2 2
left_child=1 -1 -3 5 -5 -2
right_child=3 2 -4 4 -6 -7
leaf_value=0.011666689519651103 0.00094355608493340473 -0.011837862430438682 1.3487374418146086e-05 -0.0050437203674171911 0.0051849587107488529 0.020407111035425071
leaf_weight=93 70 72 84 92 104 84
leaf_count=93 70 72 84 92 104 84
internal_value=0.000194537 -0.000580709 -0.00173913 0.000760563 4.97513e-05 0.00160377
internal_weight=599 249 156 350 196 154
internal_count=599 249 156 350 196 154
is_linear=0
shrinkage=0.025


Tree=119
num_leaves=6
num_cat=0
split_feature=161 78 82 146 46
split_gain=0.535672 0.687721 0.677421 0.280301 0.221764
threshold=2.5000000000000004 5.5000000000000009 38.500000000000007 9.7816253080000006 39.308454616727488
decision_type=2 8 8 8 2
left_child=3 2 -2 -1 -5
right_child=1 -3 -4 4 -6
leaf_value=-3.7085394011440251e-06 0.010088366163109626 -0.012578532824608211 -0.0034129847302056416 0.00049334445778955209 0.012892588106132192
leaf_weight=85 99 87 115 90 132
leaf_count=85 99 87 115 90 132
internal_value=0.000350734 -0.000383987 0.000365297 0.00108173 0.00154185
internal_weight=608 301 214 307 222
internal_count=608 301 214 307 222
is_linear=0
shrinkage=0.025


Tree=120
num_leaves=5
num_cat=0
split_feature=153 29 71 34
split_gain=0.374401 0.86051 0.655311 0.135453
threshold=13.500000000000002 36.391304347826093 32.500000000000007 17.500000000000004
decision_type=2 2 2 2
left_child=1 3 -3 -1
right_child=-2 2 -4 -5
leaf_value=0.014026853090646191 -0.00029022351569524279 -0.0075779125965267403 0.002926460060397082 0.0012640506464087142
leaf_weight=124 96 166 148 71
leaf_count=124 96 166 148 71
internal_value=9.42624e-05 0.000374514 -0.000423197 0.0016625
internal_weight=605 509 314 195
internal_count=605 509 314 195
is_linear=0
shrinkage=0.025


Tree=121
num_leaves=6
num_cat=0
split_feature=14 19 141 2 130
split_gain=0.853062 0.954196 0.757325 0.318538 0.235592
threshold=-1.4999999999999998 23.500000000000004 9.954366606510435 29.500000000000004 60.284608978334752
decision_type=10 10 2 10 2
left_child=1 2 -1 -2 -5
right_child=3 -3 -4 4 -6
leaf_value=-0.0091323249428583633 -0.00043316168406567416 -0.016230963747793366 0.011768577096385175 0.014289759193145513 0.0012036954255962738
leaf_weight=96 76 117 121 119 84
leaf_count=96 76 117 121 119 84
internal_value=-6.06795e-05 -0.000914454 5.63064e-05 0.000941901 0.00145433
internal_weight=613 334 217 279 203
internal_count=613 334 217 279 203
is_linear=0
shrinkage=0.025


Tree=122
num_leaves=4
num_cat=0
split_feature=147 160 112
split_gain=0.362692 0.327727 0.391421
threshold=7.4800664120000011 6.5000000000000009 1.0000000180025095e-35
decision_type=8 2 10
left_child=-1 -2 -3
right_child=1 2 -4
leaf_value=-0.0013425986156217595 -0.00033244333528133782 0.0058610756853434256 -0.0027301390254337661
leaf_weight=72 72 381 77
leaf_count=72 72 381 77
internal_value=0.000741351 0.000971963 0.0012203
internal_weight=602 530 458
internal_count=602 530 458
is_linear=0
shrinkage=0.025


Tree=123
num_leaves=6
num_cat=0
split_feature=150 4 33 39 16
split_gain=0.593982 0.834689 0.569547 0.246609 0.271301
threshold=0.43938332272944891 30.085000000000004 1375.0000000000002 0.1521739130434783 -1.0000000180025095e-35
decision_type=2 8 2 2 10
left_child=1 2 -1 4 -2
right_child=3 -3 -4 -5 -6
leaf_value=0.010873676149583893 0.0064843293147197533 0.0097701404450903553 -0.0062388101851074771 0.016693209331939497 -5.5801296748691534e-05
leaf_weight=86 80 120 143 91 101
leaf_count=86 80 120 143 91 101
internal_value=0.000395367 -0.000275424 -0.00116453 0.00126354 0.000658602
internal_weight=621 349 229 272 181
internal_count=621 349 229 272 181
is_linear=0
shrinkage=0.025


Tree=124
num_leaves=6
num_cat=0
split_feature=49 120 39 74 47
split_gain=0.573023 0.611519 0.398716 0.25709 0.00465287
threshold=39.500000000000007 -1.1250384521483949 0.71739130434782616 1.5000000000000002 827.50000000000011
decision_type=2 2 2 8 2
left_child=3 -2 -3 4 -1
right_child=1 2 -4 -5 -6
leaf_value=0.025842176856848195 -0.0094179536880554856 -0.00018005252215631991 0.01662619109114381 0.00038641940085436862 0.0046364792788646447
leaf_weight=70 134 196 83 84 70
leaf_count=70 134 196 83 84 70
internal_value=0.000214175 -0.000328947 0.000325704 0.00122271 0.00186207
internal_weight=637 413 279 224 140
internal_count=637 413 279 224 140
is_linear=0
shrinkage=0.025


Tree=125
num_leaves=6
num_cat=0
split_feature=88 127 83 72 28
split_gain=0.690513 0.903979 0.831808 0.691892 0.414652
threshold=18.500000000000004 28.520937724275001 6.5000000000000009 41.500000000000007 40.214285714285722
decision_type=8 2 10 10 2
left_child=2 4 -1 -4 -2
right_child=1 -3 3 -5 -6
leaf_value=0.0064695940819244416 0.014940882895039823 -0.00045781221673302024 -0.016754034049610938 -0.00052647304393419034 0.0019094874524652598
leaf_weight=102 165 74 87 72 132
leaf_count=102 165 74 87 72 132
internal_value=-2.35478e-05 0.000658245 -0.00100564 -0.0021189 0.00128311
internal_weight=632 371 261 159 297
internal_count=632 371 261 159 297
is_linear=0
shrinkage=0.025


Tree=126
num_leaves=5
num_cat=0
split_feature=8 14 65 30
split_gain=0.514639 0.468799 0.478427 0.00685667
threshold=9.5000000000000018 -1.0000000180025095e-35 7.5000000000000009 530.50000000000011
decision_type=10 10 2 2
left_child=-1 2 -2 -3
right_child=1 3 -4 -5
leaf_value=-0.0079515267627529949 0.014632788811622104 0.012982556957302405 -0.0004860552098196901 0.016770975262844167
leaf_weight=72 74 70 322 74
leaf_count=72 74 70 322 74
internal_value=0.000405186 0.000678899 0.00021197 0.00187919
internal_weight=612 540 396 144
internal_count=612 540 396 144
is_linear=0
shrinkage=0.025


Tree=127
num_leaves=4
num_cat=0
split_feature=46 38 67
split_gain=0.614412 1.03988 0.657385
threshold=32.199846485771609 5.5000000000000009 3.5000000000000004
decision_type=2 2 8
left_child=-1 2 -2
right_child=1 -3 -4
leaf_value=0.0084809335969237443 -0.013411790694038412 0.017178552087021851 -0.00017100814691537903
leaf_weight=129 75 89 299
leaf_count=129 75 89 299
internal_value=0.000125628 -0.000293803 -0.000883905
internal_weight=592 463 374
internal_count=592 463 374
is_linear=0
shrinkage=0.025


Tree=128
num_leaves=5
num_cat=0
split_feature=66 65 88 150
split_gain=0.407141 0.334967 0.323115 0.378634
threshold=15.500000000000002 10.500000000000002 29.500000000000004 0.23803327706148572
decision_type=2 2 8 2
left_child=2 -2 3 -1
right_child=1 -3 -4 -5
leaf_value=-0.00041984860392032673 0.0022265682789206777 -0.015039173152543918 0.010337825532971572 0.0057631139439148979
leaf_weight=156 72 101 136 149
leaf_count=156 72 101 136 149
internal_value=8.88531e-05 -0.000912921 0.000498879 2.41936e-05
internal_weight=614 173 441 305
internal_count=614 173 441 305
is_linear=0
shrinkage=0.025


Tree=129
num_leaves=4
num_cat=0
split_feature=13 66 169
split_gain=0.572031 0.460357 0.391334
threshold=-1.4999999999999998 10.000000000000002 1.0000000180025095e-35
decision_type=8 2 2
left_child=-1 -2 -3
right_child=1 2 -4
leaf_value=-0.012545548392968299 0.015069147046804924 -0.0027941914865737359 0.00032461917948187614
leaf_weight=94 74 157 293
leaf_count=94 74 157 293
internal_value=-0.000120385 0.000198488 -9.8901e-05
internal_weight=618 524 450
internal_count=618 524 450
is_linear=0
shrinkage=0.025


Tree=130
num_leaves=5
num_cat=0
split_feature=124 137 29 137
split_gain=0.611486 0.477161 0.61768 0.369466
threshold=84.730985717773493 53.320991210937549 51.54347826086957 69.151987915039115
decision_type=2 2 2 2
left_child=1 2 -1 -3
right_child=-2 3 -4 -5
leaf_value=0.0049284189694576378 -0.01087699560502842 0.015309483846651274 -0.0038286799038178155 -2.0926306094553476e-06
leaf_weight=134 70 162 138 88
leaf_count=134 70 162 138 88
internal_value=0.000167504 0.000474383 -0.000234657 0.0012549
internal_weight=592 522 272 250
internal_count=592 522 272 250
is_linear=0
shrinkage=0.025


Tree=131
num_leaves=5
num_cat=0
split_feature=47 88 36 177
split_gain=0.627113 0.449093 0.7823 0.262105
threshold=820.50000000000011 29.500000000000004 5.5000000000000009 2.5000000000000004
decision_type=2 10 2 2
left_child=1 2 -1 -2
right_child=3 -3 -4 -5
leaf_value=-0.0060420842768722557 0.007774034040136696 0.0046076583956224017 0.0042604429210964748 0.0011197663713163105
leaf_weight=147 111 122 84 122
leaf_count=147 111 122 84 122
internal_value=5.92217e-05 -0.000593575 -0.00123941 0.00106092
internal_weight=586 353 231 233
internal_count=586 353 231 233
is_linear=0
shrinkage=0.025


Tree=132
num_leaves=5
num_cat=0
split_feature=120 49 47 88
split_gain=0.466443 0.716163 0.562227 0.281175
threshold=-1.1180285644530839 39.500000000000007 490.50000000000006 28.500000000000004
decision_type=2 2 2 8
left_child=1 -1 -2 -4
right_child=2 -3 3 -5
leaf_value=0.0049982955009740268 -0.0075868307475710417 -0.007653268104500472 0.0020466399936285738 0.016908894844696997
leaf_weight=80 83 127 215 115
leaf_count=80 83 127 215 115
internal_value=0 -0.000955189 0.00048445 0.000955224
internal_weight=620 207 413 330
internal_count=620 207 413 330
is_linear=0
shrinkage=0.025


Tree=133
num_leaves=4
num_cat=0
split_feature=8 123 73
split_gain=0.623016 0.43796 0.562934
threshold=8.5000000000000018 84.002015380859433 22.500000000000004
decision_type=10 2 10
left_child=-1 2 -2
right_child=1 -3 -4
leaf_value=-0.008042299432012295 0.0062714229180693406 -0.0054636993505219646 -0.00025104493684741471
leaf_weight=70 294 70 175
leaf_count=70 294 70 175
internal_value=0.000191368 0.000491728 0.000775317
internal_weight=609 539 469
internal_count=609 539 469
is_linear=0
shrinkage=0.025


Tree=134
num_leaves=4
num_cat=0
split_feature=53 33 92
split_gain=0.524633 0.840022 0.526665
threshold=0.068181818181818191 275.00000000000006 16.500000000000004
decision_type=10 2 10
left_child=1 -1 -3
right_child=-2 2 -4
leaf_value=-0.011938980866489873 0.014011273756718493 -0.00056648373977179667 0.0062225950842967823
leaf_weight=72 119 72 353
leaf_count=72 119 72 353
internal_value=0.000297907 -5.47808e-05 0.000366279
internal_weight=616 497 425
internal_count=616 497 425
is_linear=0
shrinkage=0.025


Tree=135
num_leaves=5
num_cat=0
split_feature=120 36 135 6
split_gain=0.630548 0.526387 0.476708 0.0660579
threshold=-1.823997802734336 5.5000000000000009 51.917020874023486 135.00000000000003
decision_type=2 2 2 8
left_child=-1 2 -2 -3
right_child=1 3 -4 -5
leaf_value=-0.0016188531149462365 -0.00090259290251286655 0.0026076961249730801 0.0050572083338086384 0.024018907820683791
leaf_weight=100 142 70 215 78
leaf_count=100 142 70 215 78
internal_value=0.000135246 0.000504902 -6.90599e-06 0.00173203
internal_weight=605 505 357 148
internal_count=605 505 357 148
is_linear=0
shrinkage=0.025


Tree=136
num_leaves=5
num_cat=0
split_feature=13 17 107 44
split_gain=0.764948 0.602984 0.608608 0.414982
threshold=-1.4999999999999998 0.0099999999999997886 43.500000000000007 4460.0000000000009
decision_type=8 10 10 2
left_child=-1 3 -3 -2
right_child=1 2 -4 -5
leaf_value=-0.012115022054379664 -0.0010457509406522961 0.00043002848355956158 -0.0054693975400341164 0.011293256586573612
leaf_weight=86 81 134 106 219
leaf_count=86 81 134 106 219
internal_value=-0.000126783 0.000220184 -0.000693877 0.000967213
internal_weight=626 540 240 300
internal_count=626 540 240 300
is_linear=0
shrinkage=0.025


Tree=137
num_leaves=6
num_cat=0
split_feature=92 103 93 169 93
split_gain=0.725577 1.08028 0.422704 0.419911 0.21939
threshold=45.500000000000007 20.500000000000004 13.500000000000002 1.0000000180025095e-35 28.500000000000004
decision_type=8 10 8 2 10
left_child=3 2 -2 -1 -5
right_child=1 -3 -4 4 -6
leaf_value=-0.00097584860512120583 -0.00051323449733849536 -0.018954069687447034 0.013417662701733772 0.001130925377738381 0.023925363306822774
leaf_weight=114 89 77 79 146 108
leaf_count=114 89 77 79 146 108
internal_value=4.0454e-06 -0.00103 8.67053e-05 0.000710456 0.00127413
internal_weight=613 245 168 368 254
internal_count=613 245 168 368 254
is_linear=0
shrinkage=0.025


Tree=138
num_leaves=4
num_cat=0
split_feature=8 11 65
split_gain=0.59936 0.709453 0.579407
threshold=9.5000000000000018 32.500000000000007 9.5000000000000018
decision_type=8 8 2
left_child=-1 -2 -3
right_child=1 2 -4
leaf_value=-0.0063835728443316008 -0.0015041567805027739 0.011232771055305193 0.00050727698209287184
leaf_weight=77 73 149 313
leaf_count=77 73 149 313
internal_value=0.000121556 0.000430556 0.000802998
internal_weight=612 535 462
internal_count=612 535 462
is_linear=0
shrinkage=0.025


Tree=139
num_leaves=4
num_cat=0
split_feature=32 131 88
split_gain=0.656164 0.586742 0.503852
threshold=1837.5000000000002 12.591549633703748 21.500000000000004
decision_type=8 2 8
left_child=-1 2 -2
right_child=1 -3 -4
leaf_value=-0.0097689432814536334 -2.9911632382352188e-05 -0.00083511629626524346 0.0095563181357013957
leaf_weight=97 199 79 249
leaf_count=97 199 79 249
internal_value=8.74405e-05 0.000446429 0.00080574
internal_weight=624 527 448
internal_count=624 527 448
is_linear=0
shrinkage=0.025


Tree=140
num_leaves=5
num_cat=0
split_feature=29 66 19 45
split_gain=0.70867 0.650735 0.742988 0.15743
threshold=29.804347826086961 10.000000000000002 34.000000000000007 3208.152173913044
decision_type=2 2 8 2
left_child=3 -2 -3 -1
right_child=1 2 -4 -5
leaf_value=0.012281518829840056 0.0096489818409135168 -0.013138504205883764 -0.00027014710109147247 0.00094410574529732319
leaf_weight=95 74 103 227 108
leaf_count=95 74 103 227 108
internal_value=-8.57842e-05 -0.000696821 -0.0011791 0.00109375
internal_weight=607 404 330 203
internal_count=607 404 330 203
is_linear=0
shrinkage=0.025


Tree=141
num_leaves=6
num_cat=0
split_feature=66 17 28 102 6
split_gain=0.449271 0.541988 0.648192 0.34303 0.242298
threshold=14.500000000000002 -0.015000000000000567 14.500000000000002 28.500000000000004 195.00000000000003
decision_type=2 10 2 8 8
left_child=3 -2 -3 -1 -5
right_child=1 2 -4 4 -6
leaf_value=-7.2114202900626633e-05 0.012944321743285872 0.0024350906197188032 -0.011182792683296966 0.0019029131826393227 0.014766638533675642
leaf_weight=84 73 86 172 87 95
leaf_count=84 73 86 172 87 95
internal_value=0.000103821 -0.000498512 -0.00104563 0.000867159 0.00147059
internal_weight=597 331 258 266 182
internal_count=597 331 258 266 182
is_linear=0
shrinkage=0.025


Tree=142
num_leaves=7
num_cat=0
split_feature=120 96 29 29 127 29
split_gain=0.767343 0.58936 0.575081 0.498327 0.385067 0.147943
threshold=-1.0149890136718296 61.500000000000007 53.086956521739133 73.217391304347842 17.112562314568699 19.456521739130437
decision_type=2 10 2 2 2 2
left_child=1 -1 5 -4 -3 -2
right_child=2 4 3 -5 -6 -7
leaf_value=-0.0028080266173438396 0.0039152788541755128 -0.0091194171453663694 -0.006155484542890847 0.0029640931375733894 0.013675184023790919 0.0097290953663736364
leaf_weight=79 71 70 74 112 70 138
leaf_count=79 71 70 74 112 70 138
internal_value=0.000169629 -0.000993303 0.00083125 -0.000157068 0 0.00171729
internal_weight=614 219 395 186 140 209
internal_count=614 219 395 186 140 209
is_linear=0
shrinkage=0.025


Tree=143
num_leaves=6
num_cat=0
split_feature=1 93 122 96 127
split_gain=0.595462 0.829123 0.685845 0.597215 0.376373
threshold=49.500000000000007 29.500000000000004 76.515561204993276 45.500000000000007 18.678417825704134
decision_type=10 10 2 10 2
left_child=1 3 4 -1 -2
right_child=2 -3 -4 -5 -6
leaf_value=-0.00015849542680176296 0.0091699109478918395 0.0031797262322678967 -0.013715181651263196 -0.027556886502042889 0.0011135749224372858
leaf_weight=74 133 108 70 82 139
leaf_count=74 133 108 70 82 139
internal_value=-0.000171849 -0.00105948 0.000504323 -0.00220497 0.00108303
internal_weight=606 264 342 156 272
internal_count=606 264 342 156 272
is_linear=0
shrinkage=0.025


Tree=144
num_leaves=5
num_cat=0
split_feature=44 120 38 12
split_gain=0.353112 0.560929 0.980842 0.395197
threshold=15673.500000000002 -1.0149890136718296 1.0000000180025095e-35 0.12500000000000003
decision_type=2 2 2 10
left_child=1 2 -1 -3
right_child=-2 3 -4 -5
leaf_value=0.0064805539206162005 -0.0004199686739636742 0.0082871110154170025 -0.01056881409435698 -0.0050012437101131938
leaf_weight=90 86 252 96 78
leaf_count=90 86 252 96 78
internal_value=9.2181e-11 0.000259117 -0.000811518 0.000880597
internal_weight=602 516 186 330
internal_count=602 516 186 330
is_linear=0
shrinkage=0.025


Tree=145
num_leaves=4
num_cat=0
split_feature=6 83 51
split_gain=0.558099 0.491414 0.656262
threshold=315.00000000000006 5.5000000000000009 155.00000000000003
decision_type=8 10 2
left_child=1 -1 -3
right_child=-2 2 -4
leaf_value=0.0068695864527390117 0.010521409281831776 -0.010665296858587324 -0.00014670168424250457
leaf_weight=88 128 77 334
leaf_count=88 128 77 334
internal_value=-3.9556e-06 -0.000391865 -0.000763221
internal_weight=627 499 411
internal_count=627 499 411
is_linear=0
shrinkage=0.025


Tree=146
num_leaves=6
num_cat=0
split_feature=146 17 161 73 146
split_gain=0.750711 0.504217 0.404609 0.4576 0.420786
threshold=15.535522548000001 -1.0000000180025095e-35 1.5000000000000002 52.500000000000007 9.7816253080000006
decision_type=10 10 2 8 10
left_child=2 -2 3 -1 -4
right_child=1 -3 4 -5 -6
leaf_value=0.002606169484157999 1.3372926947875501e-05 -0.0045355920035262806 -0.00049066825199164975 -0.0015567097346525973 0.0085573400233567142
leaf_weight=94 76 79 94 75 188
leaf_count=94 76 79 94 75 188
internal_value=-0.000130933 -0.00160937 0.00037829 -0.000560345 0.000958188
internal_weight=606 155 451 169 282
internal_count=606 155 451 169 282
is_linear=0
shrinkage=0.025


Tree=147
num_leaves=4
num_cat=0
split_feature=13 146 131
split_gain=0.482906 0.405242 0.22293
threshold=-1.4999999999999998 9.7816253080000006 7.3638275812693283
decision_type=10 8 2
left_child=-1 -2 -3
right_child=1 2 -4
leaf_value=-0.010811515053281685 -0.00095727734520037781 0.014700403056344877 0.00064395145605399147
leaf_weight=83 129 81 291
leaf_count=83 129 81 291
internal_value=0.000135824 0.000439723 0.000862069
internal_weight=584 501 372
internal_count=584 501 372
is_linear=0
shrinkage=0.025


Tree=148
num_leaves=4
num_cat=0
split_feature=51 73 1
split_gain=0.503105 0.541999 0.337638
threshold=95.000000000000014 90.500000000000014 73.500000000000014
decision_type=2 10 10
left_child=-1 2 -2
right_child=1 -3 -4
leaf_value=-0.0012138547462779111 0.0060649982441784833 -0.00066916269422989585 -0.00045136282883460795
leaf_weight=89 355 70 74
leaf_count=89 355 70 74
internal_value=0.000362563 0.000679564 0.00101959
internal_weight=588 499 429
internal_count=588 499 429
is_linear=0
shrinkage=0.025


Tree=149
num_leaves=5
num_cat=0
split_feature=20 139 46 46
split_gain=0.481152 0.381154 1.06309 0.506803
threshold=5.5000000000000009 45.283997802734426 42.581580170441718 52.104458753362543
decision_type=8 2 2 2
left_child=-1 3 -3 -2
right_child=1 2 -4 -5
leaf_value=-0.0057875776210285328 0.0096068660295075929 -0.0044256974483502581 0.005344477462719141 -0.00042357149366405254
leaf_weight=81 168 79 121 138
leaf_count=81 168 79 121 138
internal_value=6.33447e-05 0.000362035 -0.000463415 0.000916399
internal_weight=587 506 200 306
internal_count=587 506 200 306
is_linear=0
shrinkage=0.025


Tree=150
num_leaves=6
num_cat=0
split_feature=73 3 97 6 31
split_gain=0.563246 0.919753 0.653217 0.591627 0.340336
threshold=25.500000000000004 45.500000000000007 39.500000000000007 155.00000000000003 0.38100001215934759
decision_type=8 10 10 8 2
left_child=2 -2 -1 -4 -3
right_child=1 4 3 -5 -6
leaf_value=0.013893171141006831 -0.015455040360719012 0.00094496506832432653 -0.0091055786759634758 0.0087394302508658952 -0.0011393631810032293
leaf_weight=109 77 149 79 93 107
leaf_count=109 77 149 79 93 107
internal_value=-0.000379644 -0.00107249 0.000428322 -0.000508474 -0.000306513
internal_weight=614 333 281 172 256
internal_count=614 333 281 172 256
is_linear=0
shrinkage=0.025


Tree=151
num_leaves=5
num_cat=0
split_feature=77 18 6 16
split_gain=0.700283 0.839205 0.591829 0.14316
threshold=-1.0000000180025095e-35 14.29166666666667 175.00000000000003 1.0000000180025095e-35
decision_type=10 10 10 10
left_child=3 2 -2 -1
right_child=1 -3 -4 -5
leaf_value=0.012775040103227334 -0.0047094144899645484 -0.012433480866748281 0.0058757237856767452 0.002352890515779256
leaf_weight=93 165 79 183 82
leaf_count=93 165 79 183 82
internal_value=-0.00014827 -0.000700231 -0.000141643 0.00115278
internal_weight=602 427 348 175
internal_count=602 427 348 175
is_linear=0
shrinkage=0.025


Tree=152
num_leaves=5
num_cat=0
split_feature=45 48 38 17
split_gain=0.689843 0.457429 0.605164 0.142188
threshold=4512.1086956521749 60.500000000000007 2.5000000000000004 0.029999999999999364
decision_type=2 2 2 10
left_child=1 3 -3 -1
right_child=-2 2 -4 -5
leaf_value=0.0071168132288879004 -0.00067610321999531618 -0.0018951019933341529 0.0133278625482189 0.0060380630500460912
leaf_weight=102 137 169 125 75
leaf_count=102 137 169 125 75
internal_value=0.000269168 0.000730042 0.000100335 0.00171703
internal_weight=608 471 294 177
internal_count=608 471 294 177
is_linear=0
shrinkage=0.025


Tree=153
num_leaves=5
num_cat=0
split_feature=77 14 169 74
split_gain=0.574079 0.609348 0.59328 0.214064
threshold=1.0000000180025095e-35 -3.4999999999999996 1.5000000000000002 2.5000000000000004
decision_type=8 8 2 8
left_child=1 -1 -3 -2
right_child=3 2 -4 -5
leaf_value=-0.0093787732204995006 0.0086615281583093031 -0.0018345279934685696 0.0013073414193063677 -0.00023523058077352666
leaf_weight=79 131 141 211 73
leaf_count=79 131 141 211 73
internal_value=-0.000207031 -0.000728211 -0.000252101 0.000861244
internal_weight=635 431 352 204
internal_count=635 431 352 204
is_linear=0
shrinkage=0.025


Tree=154
num_leaves=6
num_cat=0
split_feature=14 135 34 4 45
split_gain=0.760382 0.868263 0.659666 0.472077 0.215828
threshold=-1.4999999999999998 52.051960449218804 112.50000000000001 29.895000000000003 2776.3043478260875
decision_type=10 2 2 10 2
left_child=1 -1 -3 -2 -5
right_child=3 2 -4 4 -6
leaf_value=-0.012306897098669362 0.014660371149678154 0.0061385748235337663 -0.0065729338765832509 -0.0016344790606068014 0.0013959143400794779
leaf_weight=110 98 145 76 105 72
leaf_count=110 98 145 76 105 72
